{"learner":{"attributes":{"scikit_learn":"{\"_estimator_type\": \"classifier\"}"},"feature_names":[],"feature_types":[],"gradient_booster":{"model":{"gbtree_model_param":{"num_parallel_tree":"1","num_trees":"1332"},"iteration_indptr":[0,4,8,12,16,20,24,28,32,36,40,44,48,52,56,60,64,68,72,76,80,84,88,92,96,100,104,108,112,116,120,124,128,132,136,140,144,148,152,156,160,164,168,172,176,180,184,188,192,196,200,204,208,212,216,220,224,228,232,236,240,244,248,252,256,260,264,268,272,276,280,284,288,292,296,300,304,308,312,316,320,324,328,332,336,340,344,348,352,356,360,364,368,372,376,380,384,388,392,396,400,404,408,412,416,420,424,428,432,436,440,444,448,452,456,460,464,468,472,476,480,484,488,492,496,500,504,508,512,516,520,524,528,532,536,540,544,548,552,556,560,564,568,572,576,580,584,588,592,596,600,604,608,612,616,620,624,628,632,636,640,644,648,652,656,660,664,668,672,676,680,684,688,692,696,700,704,708,712,716,720,724,728,732,736,740,744,748,752,756,760,764,768,772,776,780,784,788,792,796,800,804,808,812,816,820,824,828,832,836,840,844,848,852,856,860,864,868,872,876,880,884,888,892,896,900,904,908,912,916,920,924,928,932,936,940,944,948,952,956,960,964,968,972,976,980,984,988,992,996,1000,1004,1008,1012,1016,1020,1024,1028,1032,1036,1040,1044,1048,1052,1056,1060,1064,1068,1072,1076,1080,1084,1088,1092,1096,1100,1104,1108,1112,1116,1120,1124,1128,1132,1136,1140,1144,1148,1152,1156,1160,1164,1168,1172,1176,1180,1184,1188,1192,1196,1200,1204,1208,1212,1216,1220,1224,1228,1232,1236,1240,1244,1248,1252,1256,1260,1264,1268,1272,1276,1280,1284,1288,1292,1296,1300,1304,1308,1312,1316,1320,1324,1328,1332],"tree_info":[0,1,2,3,0,1,2,3,0,1,2,3,0,1,2,3,0,1,2,3,0,1,2,3,0,1,2,3,0,1,2,3,0,1,2,3,0,1,2,3,0,1,2,3,0,1,2,3,0,1,2,3,0,1,2,3,0,1,2,3,0,1,2,3,0,1,2,3,0,1,2,3,0,1,2,3,0,1,2,3,0,1,2,3,0,1,2,3,0,1,2,3,0,1,2,3,0,1,2,3,0,1,2,3,0,1,2,3,0,1,2,3,0,1,2,3,0,1,2,3,0,1,2,3,0,1,2,3,0,1,2,3,0,1,2,3,0,1,2,3,0,1,2,3,0,1,2,3,0,1,2,3,0,1,2,3,0,1,2,3,0,1,2,3,0,1,2,3,0,1,2,3,0,1,2,3,0,1,2,3,0,1,2,3,0,1,2,3,0,1,2,3,0,1,2,3,0,1,2,3,0,1,2,3,0,1,2,3,0,1,2,3,0,1,2,3,0,1,2,3,0,1,2,3,0,1,2,3,0,1,2,3,0,1,2,3,0,1,2,3,0,1,2,3,0,1,2,3,0,1,2,3,0,1,2,3,0,1,2,3,0,1,2,3,0,1,2,3,0,1,2,3,0,1,2,3,0,1,2,3,0,1,2,3,0,1,2,3,0,1,2,3,0,1,2,3,0,1,2,3,0,1,2,3,0,1,2,3,0,1,2,3,0,1,2,3,0,1,2,3,0,1,2,3,0,1,2,3,0,1,2,3,0,1,2,3,0,1,2,3,0,1,2,3,0,1,2,3,0,1,2,3,0,1,2,3,0,1,2,3,0,1,2,3,0,1,2,3,0,1,2,3,0,1,2,3,0,1,2,3,0,1,2,3,0,1,2,3,0,1,2,3,0,1,2,3,0,1,2,3,0,1,2,3,0,1,2,3,0,1,2,3,0,1,2,3,0,1,2,3,0,1,2,3,0,1,2,3,0,1,2,3,0,1,2,3,0,1,2,3,0,1,2,3,0,1,2,3,0,1,2,3,0,1,2,3,0,1,2,3,0,1,2,3,0,1,2,3,0,1,2,3,0,1,2,3,0,1,2,3,0,1,2,3,0,1,2,3,0,1,2,3,0,1,2,3,0,1,2,3,0,1,2,3,0,1,2,3,0,1,2,3,0,1,2,3,0,1,2,3,0,1,2,3,0,1,2,3,0,1,2,3,0,1,2,3,0,1,2,3,0,1,2,3,0,1,2,3,0,1,2,3,0,1,2,3,0,1,2,3,0,1,2,3,0,1,2,3,0,1,2,3,0,1,2,3,0,1,2,3,0,1,2,3,0,1,2,3,0,1,2,3,0,1,2,3,0,1,2,3,0,1,2,3,0,1,2,3,0,1,2,3,0,1,2,3,0,1,2,3,0,1,2,3,0,1,2,3,0,1,2,3,0,1,2,3,0,1,2,3,0,1,2,3,0,1,2,3,0,1,2,3,0,1,2,3,0,1,2,3,0,1,2,3,0,1,2,3,0,1,2,3,0,1,2,3,0,1,2,3,0,1,2,3,0,1,2,3,0,1,2,3,0,1,2,3,0,1,2,3,0,1,2,3,0,1,2,3,0,1,2,3,0,1,2,3,0,1,2,3,0,1,2,3,0,1,2,3,0,1,2,3,0,1,2,3,0,1,2,3,0,1,2,3,0,1,2,3,0,1,2,3,0,1,2,3,0,1,2,3,0,1,2,3,0,1,2,3,0,1,2,3,0,1,2,3,0,1,2,3,0,1,2,3,0,1,2,3,0,1,2,3,0,1,2,3,0,1,2,3,0,1,2,3,0,1,2,3,0,1,2,3,0,1,2,3,0,1,2,3,0,1,2,3,0,1,2,3,0,1,2,3,0,1,2,3,0,1,2,3,0,1,2,3,0,1,2,3,0,1,2,3,0,1,2,3,0,1,2,3,0,1,2,3,0,1,2,3,0,1,2,3,0,1,2,3,0,1,2,3,0,1,2,3,0,1,2,3,0,1,2,3,0,1,2,3,0,1,2,3,0,1,2,3,0,1,2,3,0,1,2,3,0,1,2,3,0,1,2,3,0,1,2,3,0,1,2,3,0,1,2,3,0,1,2,3,0,1,2,3,0,1,2,3,0,1,2,3,0,1,2,3,0,1,2,3,0,1,2,3,0,1,2,3,0,1,2,3,0,1,2,3,0,1,2,3,0,1,2,3,0,1,2,3,0,1,2,3,0,1,2,3,0,1,2,3,0,1,2,3,0,1,2,3,0,1,2,3,0,1,2,3,0,1,2,3,0,1,2,3,0,1,2,3,0,1,2,3,0,1,2,3,0,1,2,3,0,1,2,3,0,1,2,3,0,1,2,3,0,1,2,3,0,1,2,3,0,1,2,3,0,1,2,3,0,1,2,3,0,1,2,3,0,1,2,3,0,1,2,3,0,1,2,3,0,1,2,3,0,1,2,3,0,1,2,3,0,1,2,3,0,1,2,3,0,1,2,3,0,1,2,3,0,1,2,3,0,1,2,3,0,1,2,3,0,1,2,3,0,1,2,3,0,1,2,3,0,1,2,3,0,1,2,3,0,1,2,3,0,1,2,3,0,1,2,3,0,1,2,3,0,1,2,3,0,1,2,3,0,1,2,3,0,1,2,3,0,1,2,3,0,1,2,3,0,1,2,3,0,1,2,3,0,1,2,3,0,1,2,3,0,1,2,3,0,1,2,3,0,1,2,3,0,1,2,3,0,1,2,3,0,1,2,3,0,1,2,3,0,1,2,3,0,1,2,3,0,1,2,3,0,1,2,3,0,1,2,3,0,1,2,3,0,1,2,3,0,1,2,3,0,1,2,3,0,1,2,3,0,1,2,3,0,1,2,3,0,1,2,3,0,1,2,3,0,1,2,3,0,1,2,3,0,1,2,3,0,1,2,3,0,1,2,3,0,1,2,3,0,1,2,3,0,1,2,3,0,1,2,3,0,1,2,3,0,1,2,3,0,1,2,3],"trees":[{"base_weights":[8.624535E-3,1.1132812E0,-4.742796E-1,1.7746478E0,2.8695652E-1,1.3300493E0,-5.5501115E-1,2.0948434E-1,7.757974E-2,-6.145789E-3,1.6615023E-1,2.0267242E-1,-3.2633692E-2,7.609662E-2,-6.389921E-2],"categories":[],"categories_nodes":[],"categories_segments":[],"categories_sizes":[],"default_left":[0,0,0,0,0,0,0,0,0,0,0,0,0,0,0],"id":0,"left_children":[1,3,5,7,9,11,13,-1,-1,-1,-1,-1,-1,-1,-1],"loss_changes":[4.489538E2,1.3939569E2,8.604396E1,2.5963684E1,5.024578E1,2.4007801E1,3.053894E1,0E0,0E0,0E0,0E0,0E0,0E0,0E0,0E0],"parents":[2147483647,0,0,1,1,2,2,3,3,4,4,5,5,6,6],"right_children":[2,4,6,8,10,12,14,-1,-1,-1,-1,-1,-1,-1,-1],"split_conditions":[2.7432602E-3,1.0737743E-2,-2.859753E-2,2.430812E-2,-1.4512149E-2,2.6552863E-2,-2.2896582E-2,2.0948434E-1,7.757974E-2,-6.145789E-3,1.6615023E-1,2.0267242E-1,-3.2633692E-2,7.609662E-2,-6.389921E-2],"split_indices":[881,170,359,670,434,40,323,0,0,0,0,0,0,0,0],"split_type":[0,0,0,0,0,0,0,0,0,0,0,0,0,0,0],"sum_hessian":[8.39625E2,2.55E2,5.84625E2,1.41E2,1.14E2,2.4375E1,5.6025E2,1.1925E2,2.175E1,9.0375E1,2.3625E1,1.8E1,6.375E0,1.7625E1,5.42625E2],"tree_param":{"num_deleted":"0","num_feature":"1024","num_nodes":"15","size_leaf_vector":"1"}},{"base_weights":[-1.2793177E-2,1.0991855E0,-5.299755E-1,1.4096456E0,-3.529412E-1,-5.8845097E-1,1.4503816E0,1.4167682E-3,1.8154985E-1,1.4637452E-1,-5.721437E-2,-6.715534E-2,9.590055E-2,1.983733E-1,-5.1638756E-2],"categories":[],"categories_nodes":[],"categories_segments":[],"categories_sizes":[],"default_left":[0,0,0,0,0,0,0,0,0,0,0,0,0,0,0],"id":1,"left_children":[1,3,5,7,9,11,13,-1,-1,-1,-1,-1,-1,-1,-1],"loss_changes":[4.7259232E2,1.18107086E2,6.580411E1,8.637924E1,1.5373534E1,3.2454147E1,1.3689171E1,0E0,0E0,0E0,0E0,0E0,0E0,0E0,0E0],"parents":[2147483647,0,0,1,1,2,2,3,3,4,4,5,5,6,6],"right_children":[2,4,6,8,10,12,14,-1,-1,-1,-1,-1,-1,-1,-1],"split_conditions":[-1.6372526E-2,-5.4500453E-2,6.7516156E-2,1.24937575E-2,-5.6123905E-2,7.1422584E-2,-3.2799456E-2,1.4167682E-3,1.8154985E-1,1.4637452E-1,-5.721437E-2,-6.715534E-2,9.590055E-2,1.983733E-1,-5.1638756E-2],"split_indices":[246,880,395,672,658,776,140,0,0,0,0,0,0,0,0],"split_type":[0,0,0,0,0,0,0,0,0,0,0,0,0,0,0],"sum_hessian":[8.1975E2,2.59875E2,5.59875E2,2.14125E2,4.575E1,5.445E2,1.5375E1,3.675E1,1.77375E2,3.75E0,4.2E1,5.31E2,1.35E1,1.275E1,2.625E0],"tree_param":{"num_deleted":"0","num_feature":"1024","num_nodes":"15","size_leaf_vector":"1"}},{"base_weights":[-6.914174E-3,-4.0513614E-1,8.3208954E-1,4.84375E-1,-5.178171E-1,1.4772036E0,-1.9138756E-1,-4.6826318E-2,1.3044634E-1,-5.9367903E-2,9.873784E-2,4.1555136E-2,1.8775293E-1,1.2385536E-1,-6.771706E-2],"categories":[],"categories_nodes":[],"categories_segments":[],"categories_sizes":[],"default_left":[0,0,0,0,0,0,0,0,0,0,0,0,0,0,0],"id":2,"left_children":[1,3,5,7,9,11,13,-1,-1,-1,-1,-1,-1,-1,-1],"loss_changes":[2.7819113E2,5.684372E1,1.7723227E2,4.391958E1,2.7399689E1,4.9115845E1,6.3010376E1,0E0,0E0,0E0,0E0,0E0,0E0,0E0,0E0],"parents":[2147483647,0,0,1,1,2,2,3,3,4,4,5,5,6,6],"right_children":[2,4,6,8,10,12,14,-1,-1,-1,-1,-1,-1,-1,-1],"split_conditions":[2.9996226E-2,-1.685031E-2,1.0629046E-2,4.6788707E-2,5.6927834E-2,-6.8133143E-3,5.0417826E-2,-4.6826318E-2,1.3044634E-1,-5.9367903E-2,9.873784E-2,4.1555136E-2,1.8775293E-1,1.2385536E-1,-6.771706E-2],"split_indices":[529,92,576,684,199,1014,913,0,0,0,0,0,0,0,0],"split_type":[0,0,0,0,0,0,0,0,0,0,0,0,0,0,0],"sum_hessian":[8.30625E2,5.63625E2,2.67E2,6.3E1,5.00625E2,1.635E2,1.035E2,2.8125E1,3.4875E1,4.88625E2,1.2E1,3.375E1,1.2975E2,2.5125E1,7.8375E1],"tree_param":{"num_deleted":"0","num_feature":"1024","num_nodes":"15","size_leaf_vector":"1"}},{"base_weights":[3.6253775E-3,1.548677E0,-7.118732E-2,1.9667655E0,-6.9560714E-2,2.1290717E-1,-4.6506952E-2],"categories":[],"categories_nodes":[],"categories_segments":[],"categories_sizes":[],"default_left":[0,0,0,0,0,0,0],"id":3,"left_children":[1,3,-1,5,-1,-1,-1],"loss_changes":[8.565449E2,2.3146631E2,0E0,1.2829956E1,0E0,0E0,0E0],"parents":[2147483647,0,0,1,1,3,3],"right_children":[2,4,-1,6,-1,-1,-1],"split_conditions":[-3.2252032E-2,-8.223458E-3,-7.118732E-2,-1.4439864E-2,-6.9560714E-2,2.1290717E-1,-4.6506952E-2],"split_indices":[790,567,0,10,0,0,0],"split_type":[0,0,0,0,0,0,0],"sum_hessian":[8.265E2,2.49375E2,5.77125E2,2.09625E2,3.975E1,2.0775E2,1.875E0],"tree_param":{"num_deleted":"0","num_feature":"1024","num_nodes":"7","size_leaf_vector":"1"}},{"base_weights":[-1.0357052E-2,-4.2515412E-1,1.0247331E0,7.675459E-1,-5.627093E-1,1.4139736E0,7.4339904E-2,1.6413672E-1,-1.3646637E-2,-6.36737E-2,1.1906835E-1,-1.6968692E-2,1.6204408E-1,-5.7937615E-2,9.1393255E-2],"categories":[],"categories_nodes":[],"categories_segments":[],"categories_sizes":[],"default_left":[0,0,0,0,0,0,0,0,0,0,0,0,0,0,0],"id":4,"left_children":[1,3,5,7,9,11,13,-1,-1,-1,-1,-1,-1,-1,-1],"loss_changes":[3.5300806E2,9.6728226E1,8.6910904E1,4.2152267E1,2.9410736E1,2.6720947E1,3.3810925E1,0E0,0E0,0E0,0E0,0E0,0E0,0E0,0E0],"parents":[2147483647,0,0,1,1,2,2,3,3,4,4,5,5,6,6],"right_children":[2,4,6,8,10,12,14,-1,-1,-1,-1,-1,-1,-1,-1],"split_conditions":[-3.1479392E-2,1.3176646E-3,2.5277728E-2,2.9622188E-2,9.0733515E-3,-5.1191032E-2,-4.6721194E-2,1.6413672E-1,-1.3646637E-2,-6.36737E-2,1.1906835E-1,-1.6968692E-2,1.6204408E-1,-5.7937615E-2,9.1393255E-2],"split_indices":[647,218,170,279,612,688,654,0,0,0,0,0,0,0,0],"split_type":[0,0,0,0,0,0,0,0,0,0,0,0,0,0,0],"sum_hessian":[8.201726E2,5.8595074E2,2.3422186E2,6.0116703E1,5.2583405E2,1.6582089E2,6.8400955E1,3.1992094E1,2.8124607E1,5.164445E2,9.38954E0,9.966856E0,1.5585405E2,3.8391098E1,3.0009857E1],"tree_param":{"num_deleted":"0","num_feature":"1024","num_nodes":"15","size_leaf_vector":"1"}},{"base_weights":[-2.8431884E-3,8.010393E-1,-5.319732E-1,-1.2266725E-1,1.2480634E0,3.1709138E-1,-5.997167E-1,-4.8294723E-2,1.16786875E-1,1.5816222E-1,7.4544717E-3,1.4925535E-1,-5.6614608E-2,2.7831178E-2,-6.7733385E-2],"categories":[],"categories_nodes":[],"categories_segments":[],"categories_sizes":[],"default_left":[0,0,0,0,0,0,0,0,0,0,0,0,0,0,0],"id":5,"left_children":[1,3,5,7,9,11,13,-1,-1,-1,-1,-1,-1,-1,-1],"loss_changes":[3.4673383E2,1.3376227E2,2.8465347E1,4.299811E1,5.916147E1,3.4484447E1,1.3291946E1,0E0,0E0,0E0,0E0,0E0,0E0,0E0,0E0],"parents":[2147483647,0,0,1,1,2,2,3,3,4,4,5,5,6,6],"right_children":[2,4,6,8,10,12,14,-1,-1,-1,-1,-1,-1,-1,-1],"split_conditions":[-6.461273E-2,1.452287E-2,-4.0279336E-2,1.97046E-2,-9.140274E-3,-5.4500453E-2,-7.3774345E-2,-4.8294723E-2,1.16786875E-1,1.5816222E-1,7.4544717E-3,1.4925535E-1,-5.6614608E-2,2.7831178E-2,-6.7733385E-2],"split_indices":[880,672,644,232,514,880,415,0,0,0,0,0,0,0,0],"split_type":[0,0,0,0,0,0,0,0,0,0,0,0,0,0,0],"sum_hessian":[8.131552E2,3.225723E2,4.905829E2,1.0543424E2,2.1713805E2,3.597752E1,4.5460538E2,8.346403E1,2.1970213E1,1.813924E2,3.574565E1,1.55360985E1,2.0441422E1,1.6795956E1,4.3780942E2],"tree_param":{"num_deleted":"0","num_feature":"1024","num_nodes":"15","size_leaf_vector":"1"}},{"base_weights":[-1.0035944E-2,1.253215E0,-2.503366E-1,2.7880546E-1,1.5848818E0,-4.3370363E-1,6.03443E-1,-5.945551E-2,1.00157246E-1,-5.286054E-2,1.7644933E-1,-5.1697772E-2,1.4143273E-1,1.3836159E-1,-2.690918E-2],"categories":[],"categories_nodes":[],"categories_segments":[],"categories_sizes":[],"default_left":[0,0,0,0,0,0,0,0,0,0,0,0,0,0,0],"id":6,"left_children":[1,3,5,7,9,11,13,-1,-1,-1,-1,-1,-1,-1,-1],"loss_changes":[2.4683556E2,4.1558E1,1.07211365E2,1.9298168E1,1.3828934E1,4.967486E1,7.183383E1,0E0,0E0,0E0,0E0,0E0,0E0,0E0,0E0],"parents":[2147483647,0,0,1,1,2,2,3,3,4,4,5,5,6,6],"right_children":[2,4,6,8,10,12,14,-1,-1,-1,-1,-1,-1,-1,-1],"split_conditions":[-7.887004E-2,-1.9984304E-3,1.8836085E-2,1.7195495E-2,-2.75454E-2,5.0722886E-2,-4.004815E-2,-5.945551E-2,1.00157246E-1,-5.286054E-2,1.7644933E-1,-5.1697772E-2,1.4143273E-1,1.3836159E-1,-2.690918E-2],"split_indices":[942,772,772,727,249,76,50,0,0,0,0,0,0,0,0],"split_type":[0,0,0,0,0,0,0,0,0,0,0,0,0,0,0],"sum_hessian":[8.111025E2,1.2895836E2,6.821441E2,3.3215275E1,9.574309E1,5.619464E2,1.2019773E2,1.4704716E1,1.8510561E1,2.689312E0,9.305378E1,5.4721185E2,1.4734549E1,6.623087E1,5.3966854E1],"tree_param":{"num_deleted":"0","num_feature":"1024","num_nodes":"15","size_leaf_vector":"1"}},{"base_weights":[-1.260417E-2,1.2926344E0,-6.957083E-2,1.6119212E0,-6.7724034E-2,1.7442925E-1,-4.708682E-2],"categories":[],"categories_nodes":[],"categories_segments":[],"categories_sizes":[],"default_left":[0,0,0,0,0,0,0],"id":7,"left_children":[1,3,-1,5,-1,-1,-1],"loss_changes":[6.8746E2,1.6769446E2,0E0,9.6883545E0,0E0,0E0,0E0],"parents":[2147483647,0,0,1,1,3,3],"right_children":[2,4,-1,6,-1,-1,-1],"split_conditions":[-3.2252032E-2,-8.223458E-3,-6.957083E-2,1.2755063E-2,-6.7724034E-2,1.7442925E-1,-4.708682E-2],"split_indices":[790,567,0,398,0,0,0],"split_type":[0,0,0,0,0,0,0],"sum_hessian":[8.2379016E2,2.700703E2,5.5371985E2,2.3180132E2,3.8268986E1,2.2990308E2,1.8982496E0],"tree_param":{"num_deleted":"0","num_feature":"1024","num_nodes":"7","size_leaf_vector":"1"}},{"base_weights":[2.2067815E-2,-3.841033E-1,9.959122E-1,-5.013599E-1,1.3320329E0,6.6749826E-2,1.288384E0,-5.8516763E-2,1.08654045E-1,1.5424095E-1,-1.9776326E-2,1.5266553E-1,-3.5410147E-2,1.4989537E-1,-1.4677837E-2],"categories":[],"categories_nodes":[],"categories_segments":[],"categories_sizes":[],"default_left":[0,0,0,0,0,0,0,0,0,0,0,0,0,0,0],"id":8,"left_children":[1,3,5,7,9,11,13,-1,-1,-1,-1,-1,-1,-1,-1],"loss_changes":[3.1784796E2,1.1478358E2,6.418425E1,3.7409714E1,6.3602295E0,3.1685839E1,2.9148926E1,0E0,0E0,0E0,0E0,0E0,0E0,0E0,0E0],"parents":[2147483647,0,0,1,1,2,2,3,3,4,4,5,5,6,6],"right_children":[2,4,6,8,10,12,14,-1,-1,-1,-1,-1,-1,-1,-1],"split_conditions":[-4.023781E-2,-2.9709348E-3,-6.962268E-2,9.0733515E-3,3.3293553E-2,-1.9384176E-4,2.3623759E-2,-5.8516763E-2,1.08654045E-1,1.5424095E-1,-1.9776326E-2,1.5266553E-1,-3.5410147E-2,1.4989537E-1,-1.4677837E-2],"split_indices":[880,660,942,612,556,170,878,0,0,0,0,0,0,0,0],"split_type":[0,0,0,0,0,0,0,0,0,0,0,0,0,0,0],"sum_hessian":[8.015976E2,5.660958E2,2.3550174E2,5.3055316E2,3.5542686E1,5.6675594E1,1.7882614E2,5.156598E2,1.4893377E1,3.3187065E1,2.3556232E0,1.2236762E1,4.443883E1,1.6571344E2,1.3112701E1],"tree_param":{"num_deleted":"0","num_feature":"1024","num_nodes":"15","size_leaf_vector":"1"}},{"base_weights":[7.981815E-3,8.502443E-1,-4.827873E-1,1.08234E0,-1.4371315E-1,-5.7849944E-1,5.886897E-1,1.4187005E-1,3.2064475E-2,8.339048E-2,-6.388192E-2,6.221852E-2,-6.555297E-2,-3.4041643E-2,1.3930808E-1],"categories":[],"categories_nodes":[],"categories_segments":[],"categories_sizes":[],"default_left":[0,0,0,0,0,0,0,0,0,0,0,0,0,0,0],"id":9,"left_children":[1,3,5,7,9,11,13,-1,-1,-1,-1,-1,-1,-1,-1],"loss_changes":[3.33527E2,6.8684296E1,5.2624947E1,4.560382E1,2.4381655E1,1.902243E1,2.7794897E1,0E0,0E0,0E0,0E0,0E0,0E0,0E0,0E0],"parents":[2147483647,0,0,1,1,2,2,3,3,4,4,5,5,6,6],"right_children":[2,4,6,8,10,12,14,-1,-1,-1,-1,-1,-1,-1,-1],"split_conditions":[-1.6372526E-2,-1.3178734E-2,2.7746167E-2,-3.6756902E-3,-2.854841E-2,-1.1606491E-2,5.4992843E-2,1.4187005E-1,3.2064475E-2,8.339048E-2,-6.388192E-2,6.221852E-2,-6.555297E-2,-3.4041643E-2,1.3930808E-1],"split_indices":[246,475,902,70,514,217,913,0,0,0,0,0,0,0,0],"split_type":[0,0,0,0,0,0,0,0,0,0,0,0,0,0,0],"sum_hessian":[8.04882E2,2.9605582E2,5.088262E2,2.3993945E2,5.6116364E1,4.6752365E2,4.1302532E1,1.8238557E2,5.7553864E1,1.824711E1,3.7869255E1,1.2982254E1,4.545414E2,1.8432459E1,2.2870073E1],"tree_param":{"num_deleted":"0","num_feature":"1024","num_nodes":"15","size_leaf_vector":"1"}},{"base_weights":[-4.9516396E-4,-3.740417E-1,6.7578113E-1,4.593627E-1,-4.9309257E-1,1.1505582E0,-2.0580046E-1,1.10858165E-1,-4.4719722E-2,-5.644375E-2,7.7397645E-2,1.3623808E-1,-2.2484358E-2,1.0430619E-1,-6.8329416E-2],"categories":[],"categories_nodes":[],"categories_segments":[],"categories_sizes":[],"default_left":[0,0,0,0,0,0,0,0,0,0,0,0,0,0,0],"id":10,"left_children":[1,3,5,7,9,11,13,-1,-1,-1,-1,-1,-1,-1,-1],"loss_changes":[2.0436737E2,5.1932213E1,1.20719315E2,3.367521E1,1.959069E1,3.1633057E1,5.257904E1,0E0,0E0,0E0,0E0,0E0,0E0,0E0,0E0],"parents":[2147483647,0,0,1,1,2,2,3,3,4,4,5,5,6,6],"right_children":[2,4,6,8,10,12,14,-1,-1,-1,-1,-1,-1,-1,-1],"split_conditions":[2.9996226E-2,-1.685031E-2,1.0629046E-2,1.4946375E-2,5.6927834E-2,6.095253E-3,-4.9817405E-4,1.10858165E-1,-4.4719722E-2,-5.644375E-2,7.7397645E-2,1.3623808E-1,-2.2484358E-2,1.0430619E-1,-6.8329416E-2],"split_indices":[529,92,576,811,199,512,855,0,0,0,0,0,0,0,0],"split_type":[0,0,0,0,0,0,0,0,0,0,0,0,0,0,0],"sum_hessian":[8.069885E2,5.201348E2,2.8685367E2,6.465626E1,4.5547858E2,1.8624568E2,1.00607994E2,3.889608E1,2.576018E1,4.43439E2,1.2039602E1,1.7085359E2,1.5392096E1,2.6655834E1,7.395216E1],"tree_param":{"num_deleted":"0","num_feature":"1024","num_nodes":"15","size_leaf_vector":"1"}},{"base_weights":[-4.759998E-3,1.1364436E0,-6.811828E-2,1.4885436E-1,-6.640886E-2],"categories":[],"categories_nodes":[],"categories_segments":[],"categories_sizes":[],"default_left":[0,0,0,0,0],"id":11,"left_children":[1,3,-1,-1,-1],"loss_changes":[5.877012E2,1.3108401E2,0E0,0E0,0E0],"parents":[2147483647,0,0,1,1],"right_children":[2,4,-1,-1,-1],"split_conditions":[-3.2252032E-2,-4.0550034E-2,-6.811828E-2,1.4885436E-1,-6.640886E-2],"split_indices":[790,680,0,0,0],"split_type":[0,0,0,0,0],"sum_hessian":[8.127645E2,2.8941693E2,5.233476E2,2.5290305E2,3.651388E1],"tree_param":{"num_deleted":"0","num_feature":"1024","num_nodes":"5","size_leaf_vector":"1"}},{"base_weights":[-1.51967E-3,1.12465E0,-2.8361505E-1,1.7689505E-1,1.2410293E0,8.734767E-1,-4.497223E-1,-5.5686176E-2,1.3159324E-1,1.3596644E-1,-2.5613595E-2,-8.349349E-3,1.18625104E-1,-5.723723E-2,5.755048E-2],"categories":[],"categories_nodes":[],"categories_segments":[],"categories_sizes":[],"default_left":[0,0,0,0,0,0,0,0,0,0,0,0,0,0,0],"id":12,"left_children":[1,3,5,7,9,11,13,-1,-1,-1,-1,-1,-1,-1,-1],"loss_changes":[2.576395E2,1.7698761E1,1.2504088E2,1.4550336E1,6.742157E0,1.8407871E1,4.8167946E1,0E0,0E0,0E0,0E0,0E0,0E0,0E0,0E0],"parents":[2147483647,0,0,1,1,2,2,3,3,4,4,5,5,6,6],"right_children":[2,4,6,8,10,12,14,-1,-1,-1,-1,-1,-1,-1,-1],"split_conditions":[1.78564E-2,8.739506E-3,-2.2624884E-2,-1.16526885E-2,1.922834E-2,-7.032882E-2,6.6031315E-3,-5.5686176E-2,1.3159324E-1,1.3596644E-1,-2.5613595E-2,-8.349349E-3,1.18625104E-1,-5.723723E-2,5.755048E-2],"split_indices":[355,869,323,597,354,917,485,0,0,0,0,0,0,0,0],"split_type":[0,0,0,0,0,0,0,0,0,0,0,0,0,0,0],"sum_hessian":[8.0898065E2,1.6145197E2,6.475287E2,1.7932842E1,1.4351913E2,8.075266E1,5.6677606E2,1.1093079E1,6.8397636E0,1.40799E2,2.72014E0,1.615466E1,6.4598E1,5.221065E2,4.466953E1],"tree_param":{"num_deleted":"0","num_feature":"1024","num_nodes":"15","size_leaf_vector":"1"}},{"base_weights":[-8.491351E-3,7.6395774E-1,-4.86637E-1,-1.5618576E-1,1.0029445E0,-5.6416553E-1,6.215692E-1,7.604917E-2,-4.9999073E-2,-5.7040643E-2,1.1729637E-1,1.16296634E-1,-6.421298E-2,1.2937818E-1,-6.334202E-2],"categories":[],"categories_nodes":[],"categories_segments":[],"categories_sizes":[],"default_left":[0,0,0,0,0,0,0,0,0,0,0,0,0,0,0],"id":13,"left_children":[1,3,5,7,9,11,13,-1,-1,-1,-1,-1,-1,-1,-1],"loss_changes":[2.9120648E2,6.644696E1,4.2191162E1,1.7340683E1,3.502455E1,2.7852402E1,2.377846E1,0E0,0E0,0E0,0E0,0E0,0E0,0E0,0E0],"parents":[2147483647,0,0,1,1,2,2,3,3,4,4,5,5,6,6],"right_children":[2,4,6,8,10,12,14,-1,-1,-1,-1,-1,-1,-1,-1],"split_conditions":[-1.6372526E-2,-1.4714594E-2,1.4762796E-1,-4.1095246E-2,-1.0937546E-2,-8.315475E-2,1.4083683E-3,7.604917E-2,-4.9999073E-2,-5.7040643E-2,1.1729637E-1,1.16296634E-1,-6.421298E-2,1.2937818E-1,-6.334202E-2],"split_indices":[246,314,560,680,569,391,720,0,0,0,0,0,0,0,0],"split_type":[0,0,0,0,0,0,0,0,0,0,0,0,0,0,0],"sum_hessian":[7.864375E2,3.0045374E2,4.8598376E2,6.2018276E1,2.3843546E2,4.5466684E2,3.1316929E1,1.6041376E1,4.5976902E1,1.3428036E1,2.2500742E2,9.115934E0,4.455509E2,2.1099445E1,1.02174835E1],"tree_param":{"num_deleted":"0","num_feature":"1024","num_nodes":"15","size_leaf_vector":"1"}},{"base_weights":[1.6871175E-3,9.972907E-1,-2.2419433E-1,2.0954277E-1,1.2180104E0,-3.0538276E-1,1.1876588E0,-5.4454688E-2,9.743562E-2,-5.065109E-2,1.3476807E-1,-4.7830373E-2,3.9018527E-2,1.466657E-1,-5.3402413E-2],"categories":[],"categories_nodes":[],"categories_segments":[],"categories_sizes":[],"default_left":[0,0,0,0,0,0,0,0,0,0,0,0,0,0,0],"id":14,"left_children":[1,3,5,7,9,11,13,-1,-1,-1,-1,-1,-1,-1,-1],"loss_changes":[1.7991574E2,2.5467804E1,7.510872E1,1.739236E1,8.773376E0,5.8824196E1,1.1723148E1,0E0,0E0,0E0,0E0,0E0,0E0,0E0,0E0],"parents":[2147483647,0,0,1,1,2,2,3,3,4,4,5,5,6,6],"right_children":[2,4,6,8,10,12,14,-1,-1,-1,-1,-1,-1,-1,-1],"split_conditions":[-7.887004E-2,-1.9984304E-3,5.0722886E-2,8.133954E-3,-2.75454E-2,1.8836085E-2,6.050456E-3,-5.4454688E-2,9.743562E-2,-5.065109E-2,1.3476807E-1,-4.7830373E-2,3.9018527E-2,1.466657E-1,-5.3402413E-2],"split_indices":[942,772,76,0,249,772,978,0,0,0,0,0,0,0,0],"split_type":[0,0,0,0,0,0,0,0,0,0,0,0,0,0,0],"sum_hessian":[7.980282E2,1.4694275E2,6.5108545E2,3.2587482E1,1.1435526E2,6.1642194E2,3.466355E1,1.6231018E1,1.6356464E1,2.515463E0,1.118398E2,5.0906232E2,1.07359604E2,3.1431896E1,3.2316575E0],"tree_param":{"num_deleted":"0","num_feature":"1024","num_nodes":"15","size_leaf_vector":"1"}},{"base_weights":[-1.2729986E-2,1.002128E0,-6.6785835E-2,1.217677E0,-6.509243E-2,-3.6506977E-2,1.3108508E-1],"categories":[],"categories_nodes":[],"categories_segments":[],"categories_sizes":[],"default_left":[0,0,0,0,0,0,0],"id":15,"left_children":[1,3,-1,5,-1,-1,-1],"loss_changes":[4.8909286E2,1.0361157E2,0E0,3.6028748E0,0E0,0E0,0E0],"parents":[2147483647,0,0,1,1,3,3],"right_children":[2,4,-1,6,-1,-1,-1],"split_conditions":[-3.2252032E-2,-4.0550034E-2,-6.6785835E-2,-2.8442439E-2,-6.509243E-2,-3.6506977E-2,1.3108508E-1],"split_indices":[790,680,0,0,0,0,0],"split_type":[0,0,0,0,0,0,0],"sum_hessian":[7.859329E2,2.953063E2,4.9062665E2,2.606663E2,3.464002E1,1.0859625E0,2.5958032E2],"tree_param":{"num_deleted":"0","num_feature":"1024","num_nodes":"7","size_leaf_vector":"1"}},{"base_weights":[-4.6721776E-3,1.0098995E0,-2.796794E-1,2.9006037E-1,1.102072E0,7.6260775E-1,-4.4798765E-1,1.152147E-1,-3.3894755E-2,1.2243932E-1,-8.757751E-3,1.0308503E-1,-2.941023E-2,5.950834E-2,-5.6136444E-2],"categories":[],"categories_nodes":[],"categories_segments":[],"categories_sizes":[],"default_left":[0,0,0,0,0,0,0,0,0,0,0,0,0,0,0],"id":16,"left_children":[1,3,5,7,9,11,13,-1,-1,-1,-1,-1,-1,-1,-1],"loss_changes":[2.2209949E2,1.094339E1,1.1020154E2,1.0194246E1,7.662781E0,1.8509823E1,4.193862E1,0E0,0E0,0E0,0E0,0E0,0E0,0E0,0E0],"parents":[2147483647,0,0,1,1,2,2,3,3,4,4,5,5,6,6],"right_children":[2,4,6,8,10,12,14,-1,-1,-1,-1,-1,-1,-1,-1],"split_conditions":[1.78564E-2,-2.329842E-2,-2.2624884E-2,-3.1527663E-3,4.9943876E-2,6.977345E-2,-8.336869E-3,1.152147E-1,-3.3894755E-2,1.2243932E-1,-8.757751E-3,1.0308503E-1,-2.941023E-2,5.950834E-2,-5.6136444E-2],"split_indices":[355,678,323,800,487,1023,610,0,0,0,0,0,0,0,0],"split_type":[0,0,0,0,0,0,0,0,0,0,0,0,0,0,0],"sum_hessian":[7.940017E2,1.6875377E2,6.25248E2,1.9626186E1,1.4912758E2,8.643689E1,5.388111E2,8.207831E0,1.1418355E1,1.4398201E2,5.1455817E0,7.246261E1,1.3974283E1,3.784103E1,5.0097003E2],"tree_param":{"num_deleted":"0","num_feature":"1024","num_nodes":"15","size_leaf_vector":"1"}},{"base_weights":[-5.3972914E-4,6.769366E-1,-4.6209368E-1,-2.1835004E-1,8.9729893E-1,6.9366246E-1,-5.4186416E-1,6.920131E-2,-5.2305862E-2,-1.2135059E-3,1.1235824E-1,1.2275093E-1,-6.0459964E-2,7.887525E-2,-6.1864536E-2],"categories":[],"categories_nodes":[],"categories_segments":[],"categories_sizes":[],"default_left":[0,0,0,0,0,0,0,0,0,0,0,0,0,0,0],"id":17,"left_children":[1,3,5,7,9,11,13,-1,-1,-1,-1,-1,-1,-1,-1],"loss_changes":[2.4449892E2,6.2705627E1,4.3253105E1,1.5160967E1,3.5413223E1,1.8057087E1,2.0762054E1,0E0,0E0,0E0,0E0,0E0,0E0,0E0,0E0],"parents":[2147483647,0,0,1,1,2,2,3,3,4,4,5,5,6,6],"right_children":[2,4,6,8,10,12,14,-1,-1,-1,-1,-1,-1,-1,-1],"split_conditions":[-1.6372526E-2,-1.4714594E-2,-9.162912E-2,-4.1095246E-2,1.24937575E-2,-7.5019663E-3,-6.754364E-2,6.920131E-2,-5.2305862E-2,-1.2135059E-3,1.1235824E-1,1.2275093E-1,-6.0459964E-2,7.887525E-2,-6.1864536E-2],"split_indices":[246,314,880,680,672,329,660,0,0,0,0,0,0,0,0],"split_type":[0,0,0,0,0,0,0,0,0,0,0,0,0,0,0],"sum_hessian":[7.79916E2,3.158458E2,4.640702E2,6.238747E1,2.5345831E2,2.9465328E1,4.346049E2,1.4532931E1,4.7854538E1,3.668382E1,2.167745E2,2.1721727E1,7.7436E0,1.1521325E1,4.2308356E2],"tree_param":{"num_deleted":"0","num_feature":"1024","num_nodes":"15","size_leaf_vector":"1"}},{"base_weights":[-1.0479732E-2,-3.593754E-1,5.6990284E-1,2.7447274E-1,-4.8545617E-1,-3.567214E-1,8.281656E-1,9.7718984E-2,-4.715462E-2,-5.582032E-2,6.5718345E-2,9.978765E-2,-6.4778715E-2,-6.4710066E-2,1.0054467E-1],"categories":[],"categories_nodes":[],"categories_segments":[],"categories_sizes":[],"default_left":[0,0,0,0,0,0,0,0,0,0,0,0,0,0,0],"id":18,"left_children":[1,3,5,7,9,11,13,-1,-1,-1,-1,-1,-1,-1,-1],"loss_changes":[1.5798181E2,3.907211E1,7.03962E1,3.7649845E1,1.660299E1,2.12816E1,3.7321533E1,0E0,0E0,0E0,0E0,0E0,0E0,0E0,0E0],"parents":[2147483647,0,0,1,1,2,2,3,3,4,4,5,5,6,6],"right_children":[2,4,6,8,10,12,14,-1,-1,-1,-1,-1,-1,-1,-1],"split_conditions":[2.9996226E-2,-1.23105515E-2,-3.6959622E-2,3.6045632E-3,4.127257E-2,-4.7281582E-2,-2.2769213E-2,9.7718984E-2,-4.715462E-2,-5.582032E-2,6.5718345E-2,9.978765E-2,-6.4778715E-2,-6.4710066E-2,1.0054467E-1],"split_indices":[529,232,260,748,858,404,720,0,0,0,0,0,0,0,0],"split_type":[0,0,0,0,0,0,0,0,0,0,0,0,0,0,0],"sum_hessian":[7.781727E2,4.8624716E2,2.919256E2,8.047861E1,4.0576855E2,6.3546192E1,2.2837941E2,4.2357784E1,3.8120827E1,3.9328003E2,1.2488518E1,9.835175E0,5.3711018E1,1.6208096E1,2.1217131E2],"tree_param":{"num_deleted":"0","num_feature":"1024","num_nodes":"15","size_leaf_vector":"1"}},{"base_weights":[-6.7524267E-3,8.997674E-1,-6.56363E-2,1.0948792E0,-6.396321E-2,-3.5283543E-2,1.1781538E-1],"categories":[],"categories_nodes":[],"categories_segments":[],"categories_sizes":[],"default_left":[0,0,0,0,0,0,0],"id":19,"left_children":[1,3,-1,5,-1,-1,-1],"loss_changes":[4.3208212E2,9.269217E1,0E0,2.9666748E0,0E0,0E0,0E0],"parents":[2147483647,0,0,1,1,3,3],"right_children":[2,4,-1,6,-1,-1,-1],"split_conditions":[-3.2252032E-2,-4.0550034E-2,-6.56363E-2,-2.8442439E-2,-6.396321E-2,-3.5283543E-2,1.1781538E-1],"split_indices":[790,680,0,0,0,0,0],"split_type":[0,0,0,0,0,0,0],"sum_hessian":[7.8340607E2,3.139514E2,4.6945465E2,2.780046E2,3.594678E1,1.0462E0,2.769584E2],"tree_param":{"num_deleted":"0","num_feature":"1024","num_nodes":"7","size_leaf_vector":"1"}},{"base_weights":[-3.1682397E-3,5.409486E-1,-4.8925856E-1,7.339241E-1,-4.3132058E-1,-5.411405E-1,1.0356348E0,9.515446E-2,-7.477872E-3,1.04252405E-1,-6.0885347E-2,7.633663E-2,-6.1107438E-2,1.2324719E-1,-3.4798558E-3],"categories":[],"categories_nodes":[],"categories_segments":[],"categories_sizes":[],"default_left":[0,0,0,0,0,0,0,0,0,0,0,0,0,0,0],"id":20,"left_children":[1,3,5,7,9,11,13,-1,-1,-1,-1,-1,-1,-1,-1],"loss_changes":[2.035954E2,6.846301E1,3.2725037E1,3.802655E1,1.2337393E1,1.530175E1,1.7459745E0,0E0,0E0,0E0,0E0,0E0,0E0,0E0,0E0],"parents":[2147483647,0,0,1,1,2,2,3,3,4,4,5,5,6,6],"right_children":[2,4,6,8,10,12,14,-1,-1,-1,-1,-1,-1,-1,-1],"split_conditions":[1.1535626E-2,1.3455859E-2,6.384986E-3,4.366237E-2,-2.5385391E-2,-3.2472286E-2,9.870193E-3,9.515446E-2,-7.477872E-3,1.04252405E-1,-6.0885347E-2,7.633663E-2,-6.1107438E-2,1.2324719E-1,-3.4798558E-3],"split_indices":[881,746,612,469,722,363,47,0,0,0,0,0,0,0,0],"split_type":[0,0,0,0,0,0,0,0,0,0,0,0,0,0,0],"sum_hessian":[7.6776556E2,3.622073E2,4.0555826E2,3.024269E2,5.9780388E1,3.9283777E2,1.2720511E1,2.5327632E2,4.915058E1,4.7970853E0,5.4983303E1,8.682221E0,3.8415555E2,1.1397922E1,1.3225898E0],"tree_param":{"num_deleted":"0","num_feature":"1024","num_nodes":"15","size_leaf_vector":"1"}},{"base_weights":[-6.731673E-3,6.1207694E-1,-4.4498613E-1,-4.601512E-1,7.4334955E-1,4.3890128E-1,-5.6195414E-1,-6.771756E-2,6.559757E-2,9.301171E-2,-4.124206E-3,-5.7260703E-2,1.0058438E-1,-6.2338773E-2,8.4356196E-2],"categories":[],"categories_nodes":[],"categories_segments":[],"categories_sizes":[],"default_left":[0,0,0,0,0,0,0,0,0,0,0,0,0,0,0],"id":21,"left_children":[1,3,5,7,9,11,13,-1,-1,-1,-1,-1,-1,-1,-1],"loss_changes":[2.018625E2,4.37797E1,4.529548E1,6.751066E0,2.7200806E1,2.5654163E1,1.1300926E1,0E0,0E0,0E0,0E0,0E0,0E0,0E0,0E0],"parents":[2147483647,0,0,1,1,2,2,3,3,4,4,5,5,6,6],"right_children":[2,4,6,8,10,12,14,-1,-1,-1,-1,-1,-1,-1,-1],"split_conditions":[-1.6372526E-2,3.502071E-4,-1.827466E-1,3.0250145E-2,-1.3178734E-2,-2.9167362E-2,1.7810614E-1,-6.771756E-2,6.559757E-2,9.301171E-2,-4.124206E-3,-5.7260703E-2,1.0058438E-1,-6.2338773E-2,8.4356196E-2],"split_indices":[246,992,647,438,475,928,716,0,0,0,0,0,0,0,0],"split_type":[0,0,0,0,0,0,0,0,0,0,0,0,0,0,0],"sum_hessian":[7.423385E2,3.0760638E2,4.3473215E2,3.3279102E1,2.7432727E2,5.0484634E1,3.842475E2,2.901504E1,4.264062E0,2.3610863E2,3.8218647E1,1.7132076E1,3.335256E1,3.7896936E2,5.2781434E0],"tree_param":{"num_deleted":"0","num_feature":"1024","num_nodes":"15","size_leaf_vector":"1"}},{"base_weights":[1.7533904E-2,-3.184747E-1,5.2169454E-1,-6.7501456E-2,-5.992394E-1,8.327397E-1,-1.6083555E-1,-2.0572457E-2,1.0354807E-1,-6.50322E-2,3.37616E-2,9.72437E-2,-6.713452E-2,7.564923E-2,-6.2318128E-2],"categories":[],"categories_nodes":[],"categories_segments":[],"categories_sizes":[],"default_left":[0,0,0,0,0,0,0,0,0,0,0,0,0,0,0],"id":22,"left_children":[1,3,5,7,9,11,13,-1,-1,-1,-1,-1,-1,-1,-1],"loss_changes":[1.3196819E2,3.290172E1,6.627336E1,3.223996E1,1.953476E0,2.4456482E1,3.642612E1,0E0,0E0,0E0,0E0,0E0,0E0,0E0,0E0],"parents":[2147483647,0,0,1,1,2,2,3,3,4,4,5,5,6,6],"right_children":[2,4,6,8,10,12,14,-1,-1,-1,-1,-1,-1,-1,-1],"split_conditions":[2.9996226E-2,4.0233674E-4,1.0629046E-2,3.184168E-2,1.8822312E-2,-1.2002734E-2,5.0417826E-2,-2.0572457E-2,1.0354807E-1,-6.50322E-2,3.37616E-2,9.72437E-2,-6.713452E-2,7.564923E-2,-6.2318128E-2],"split_indices":[529,513,576,1012,3,649,913,0,0,0,0,0,0,0,0],"split_type":[0,0,0,0,0,0,0,0,0,0,0,0,0,0,0],"sum_hessian":[7.770415E2,4.6650058E2,3.1054095E2,2.4697345E2,2.1952711E2,2.1317291E2,9.7368034E1,2.211323E2,2.5841152E1,2.1778407E2,1.7430446E0,2.029379E2,1.023502E1,3.1617228E1,6.575081E1],"tree_param":{"num_deleted":"0","num_feature":"1024","num_nodes":"15","size_leaf_vector":"1"}},{"base_weights":[-3.8126754E-3,8.389156E-1,-6.456406E-2,9.983999E-1,-6.27405E-2,-3.3952728E-2,1.0741848E-1],"categories":[],"categories_nodes":[],"categories_segments":[],"categories_sizes":[],"default_left":[0,0,0,0,0,0,0],"id":23,"left_children":[1,3,-1,5,-1,-1,-1],"loss_changes":[3.7996674E2,7.164404E1,0E0,2.47818E0,0E0,0E0,0E0],"parents":[2147483647,0,0,1,1,3,3],"right_children":[2,4,-1,6,-1,-1,-1],"split_conditions":[-3.2252032E-2,-4.0550034E-2,-6.456406E-2,-2.8442439E-2,-6.27405E-2,-3.3952728E-2,1.0741848E-1],"split_indices":[790,680,0,0,0,0,0],"split_type":[0,0,0,0,0,0,0],"sum_hessian":[7.497335E2,3.1156613E2,4.3816742E2,2.804844E2,3.1081724E1,1.0015614E0,2.7948285E2],"tree_param":{"num_deleted":"0","num_feature":"1024","num_nodes":"7","size_leaf_vector":"1"}},{"base_weights":[-1.6163034E-2,4.9790573E-1,-4.925382E-1,6.7113036E-1,-4.5255905E-1,8.245919E-1,-5.370649E-1,1.05523326E-1,3.8792636E-2,9.757208E-2,-5.9948284E-2,-4.2016484E-2,1.0902562E-1,-5.972208E-2,8.719619E-2],"categories":[],"categories_nodes":[],"categories_segments":[],"categories_sizes":[],"default_left":[0,0,0,0,0,0,0,0,0,0,0,0,0,0,0],"id":24,"left_children":[1,3,5,7,9,11,13,-1,-1,-1,-1,-1,-1,-1,-1],"loss_changes":[1.7724826E2,5.762239E1,2.2473763E1,2.8328903E1,8.500806E0,3.4048948E0,1.0920235E1,0E0,0E0,0E0,0E0,0E0,0E0,0E0,0E0],"parents":[2147483647,0,0,1,1,2,2,3,3,4,4,5,5,6,6],"right_children":[2,4,6,8,10,12,14,-1,-1,-1,-1,-1,-1,-1,-1],"split_conditions":[1.1535626E-2,1.7878877E-2,-3.1022195E-2,-1.1549385E-3,-1.7761827E-2,-4.200279E-2,-1.6944517E-3,1.05523326E-1,3.8792636E-2,9.757208E-2,-5.9948284E-2,-4.2016484E-2,1.0902562E-1,-5.972208E-2,8.719619E-2],"split_indices":[881,819,363,670,610,671,660,0,0,0,0,0,0,0,0],"split_type":[0,0,0,0,0,0,0,0,0,0,0,0,0,0,0],"sum_hessian":[7.2178705E2,3.4713718E2,3.746499E2,2.938721E2,5.3265053E1,1.1678316E1,3.629716E2,1.4422041E2,1.496517E2,3.356003E0,4.990905E1,1.4696276E0,1.0208688E1,3.5793054E2,5.0410466E0],"tree_param":{"num_deleted":"0","num_feature":"1024","num_nodes":"15","size_leaf_vector":"1"}},{"base_weights":[1.5578232E-2,6.0152435E-1,-4.418708E-1,-1.4500086E-1,7.573852E-1,-5.4824716E-1,4.2413273E-1,-4.788173E-2,8.011586E-2,9.114178E-2,-2.3398628E-2,-6.0397476E-2,7.845254E-2,9.7466454E-2,-6.177154E-2],"categories":[],"categories_nodes":[],"categories_segments":[],"categories_sizes":[],"default_left":[0,0,0,0,0,0,0,0,0,0,0,0,0,0,0],"id":25,"left_children":[1,3,5,7,9,11,13,-1,-1,-1,-1,-1,-1,-1,-1],"loss_changes":[1.9757602E2,3.771039E1,3.8367897E1,1.5663348E1,2.4908417E1,8.170227E0,2.2894348E1,0E0,0E0,0E0,0E0,0E0,0E0,0E0,0E0],"parents":[2147483647,0,0,1,1,2,2,3,3,4,4,5,5,6,6],"right_children":[2,4,6,8,10,12,14,-1,-1,-1,-1,-1,-1,-1,-1],"split_conditions":[-1.6372526E-2,-1.4714594E-2,4.3243603E-3,6.7692614E-5,1.8836085E-2,3.441036E-2,-1.5472914E-2,-4.788173E-2,8.011586E-2,9.114178E-2,-2.3398628E-2,-6.0397476E-2,7.845254E-2,9.7466454E-2,-6.177154E-2],"split_indices":[246,314,130,976,772,73,488,0,0,0,0,0,0,0,0],"split_type":[0,0,0,0,0,0,0,0,0,0,0,0,0,0,0],"sum_hessian":[7.35121E2,3.2215628E2,4.129647E2,5.5655136E1,2.6650116E2,3.6811398E2,4.4850693E1,4.1952538E1,1.37026005E1,2.4305379E2,2.3447367E1,3.640171E2,4.096882E0,3.0237417E1,1.46132765E1],"tree_param":{"num_deleted":"0","num_feature":"1024","num_nodes":"15","size_leaf_vector":"1"}},{"base_weights":[8.581588E-3,-3.131088E-1,4.7628596E-1,-4.206034E-1,4.95649E-1,7.550707E-1,-1.473554E-1,-5.101315E-2,6.238084E-2,-4.1223172E-2,1.0249508E-1,9.030175E-2,-3.2739345E-2,7.593223E-2,-6.4197406E-2],"categories":[],"categories_nodes":[],"categories_segments":[],"categories_sizes":[],"default_left":[0,0,0,0,0,0,0,0,0,0,0,0,0,0,0],"id":26,"left_children":[1,3,5,7,9,11,13,-1,-1,-1,-1,-1,-1,-1,-1],"loss_changes":[1.1327298E2,3.8989086E1,5.3451416E1,2.2562988E1,2.1883667E1,2.0328552E1,3.754009E1,0E0,0E0,0E0,0E0,0E0,0E0,0E0,0E0],"parents":[2147483647,0,0,1,1,2,2,3,3,4,4,5,5,6,6],"right_children":[2,4,6,8,10,12,14,-1,-1,-1,-1,-1,-1,-1,-1],"split_conditions":[2.9996226E-2,3.4233797E-2,1.0629046E-2,5.301422E-2,1.5333583E-2,6.095253E-3,-4.9817405E-4,-5.101315E-2,6.238084E-2,-4.1223172E-2,1.0249508E-1,9.030175E-2,-3.2739345E-2,7.593223E-2,-6.4197406E-2],"split_indices":[529,1022,576,655,207,512,855,0,0,0,0,0,0,0,0],"split_type":[0,0,0,0,0,0,0,0,0,0,0,0,0,0,0],"sum_hessian":[7.5087335E2,4.4507684E2,3.0579648E2,3.9328415E2,5.1792717E1,2.1118173E2,9.461475E1,3.7289197E2,2.0392157E1,1.7887974E1,3.3904743E1,1.9500514E2,1.6176582E1,3.2507088E1,6.2107666E1],"tree_param":{"num_deleted":"0","num_feature":"1024","num_nodes":"15","size_leaf_vector":"1"}},{"base_weights":[-2.1615627E-3,7.365015E-1,-6.356664E-2,-6.2161457E-2,9.1173357E-1,9.894705E-2,-4.5553662E-2],"categories":[],"categories_nodes":[],"categories_segments":[],"categories_sizes":[],"default_left":[0,0,0,0,0,0,0],"id":27,"left_children":[1,3,-1,-1,5,-1,-1],"loss_changes":[3.1340118E2,7.414398E1,0E0,0E0,5.4067383E0,0E0,0E0],"parents":[2147483647,0,0,1,1,4,4],"right_children":[2,4,-1,-1,6,-1,-1],"split_conditions":[-1.1722569E-2,2.4818363E-2,-6.356664E-2,-6.2161457E-2,-2.1438476E-2,9.894705E-2,-4.5553662E-2],"split_indices":[593,425,0,0,348,0,0],"split_type":[0,0,0,0,0,0,0],"sum_hessian":[7.1456055E2,3.1782523E2,3.9673532E2,3.703431E1,2.8079092E2,2.7833203E2,2.4588766E0],"tree_param":{"num_deleted":"0","num_feature":"1024","num_nodes":"7","size_leaf_vector":"1"}},{"base_weights":[6.2597957E-3,5.5624646E-1,-4.006348E-1,8.091173E-1,5.293777E-2,-5.081156E-1,5.6772697E-1,-1.2537743E-3,9.840548E-2,6.409595E-2,-4.004431E-2,-5.7888158E-2,1.083761E-1,1.02950454E-1,-1.9899646E-2],"categories":[],"categories_nodes":[],"categories_segments":[],"categories_sizes":[],"default_left":[0,0,0,0,0,0,0,0,0,0,0,0,0,0,0],"id":28,"left_children":[1,3,5,7,9,11,13,-1,-1,-1,-1,-1,-1,-1,-1],"loss_changes":[1.6067583E2,3.8813934E1,4.3240974E1,1.8494797E1,2.430598E1,1.9261032E1,1.2586641E1,0E0,0E0,0E0,0E0,0E0,0E0,0E0,0E0],"parents":[2147483647,0,0,1,1,2,2,3,3,4,4,5,5,6,6],"right_children":[2,4,6,8,10,12,14,-1,-1,-1,-1,-1,-1,-1,-1],"split_conditions":[3.5089569E-3,1.1612142E-2,-3.4885645E-2,-3.0309694E-2,3.3504955E-2,9.741291E-3,4.058202E-2,-1.2537743E-3,9.840548E-2,6.409595E-2,-4.004431E-2,-5.7888158E-2,1.083761E-1,1.02950454E-1,-1.9899646E-2],"split_indices":[881,804,880,600,279,612,837,0,0,0,0,0,0,0,0],"split_type":[0,0,0,0,0,0,0,0,0,0,0,0,0,0,0],"sum_hessian":[7.1599084E2,3.043047E2,4.1168616E2,2.0213902E2,1.02165665E2,3.7098495E2,4.070122E1,2.415686E1,1.7798216E2,4.4663628E1,5.7502037E1,3.6372327E2,7.2616854E0,2.6530703E1,1.4170521E1],"tree_param":{"num_deleted":"0","num_feature":"1024","num_nodes":"15","size_leaf_vector":"1"}},{"base_weights":[9.61515E-3,5.433266E-1,-4.3039492E-1,-1.8292254E-1,6.99476E-1,-5.222688E-1,3.8259998E-1,-3.668605E-2,1.16771676E-1,8.7652184E-2,2.5919245E-3,9.661722E-2,-5.9845727E-2,9.244197E-2,-6.1954685E-2],"categories":[],"categories_nodes":[],"categories_segments":[],"categories_sizes":[],"default_left":[0,0,0,0,0,0,0,0,0,0,0,0,0,0,0],"id":29,"left_children":[1,3,5,7,9,11,13,-1,-1,-1,-1,-1,-1,-1,-1],"loss_changes":[1.6749997E2,3.6678047E1,2.9401703E1,1.2170856E1,2.1484894E1,1.9162521E1,1.9155512E1,0E0,0E0,0E0,0E0,0E0,0E0,0E0,0E0],"parents":[2147483647,0,0,1,1,2,2,3,3,4,4,5,5,6,6],"right_children":[2,4,6,8,10,12,14,-1,-1,-1,-1,-1,-1,-1,-1],"split_conditions":[-1.6372526E-2,-1.4714594E-2,1.3675489E-1,2.9214548E-2,-9.140274E-3,-4.3477733E-2,-2.52242E-2,-3.668605E-2,1.16771676E-1,8.7652184E-2,2.5919245E-3,9.661722E-2,-5.9845727E-2,9.244197E-2,-6.1954685E-2],"split_indices":[246,314,560,315,514,681,771,0,0,0,0,0,0,0,0],"split_type":[0,0,0,0,0,0,0,0,0,0,0,0,0,0,0],"sum_hessian":[7.1126044E2,3.2130176E2,3.899587E2,5.6827263E1,2.644745E2,3.5068637E2,3.9272312E1,5.113706E1,5.690203E0,2.2439502E2,4.0079475E1,8.330087E0,3.423563E2,2.6236115E1,1.3036198E1],"tree_param":{"num_deleted":"0","num_feature":"1024","num_nodes":"15","size_leaf_vector":"1"}},{"base_weights":[2.5093636E-2,7.041093E-1,-1.7325597E-1,7.986744E-1,-6.1839275E-2,-3.5234615E-1,4.2984638E-1,9.319283E-2,-3.9965108E-2,-4.3692544E-2,9.456935E-2,7.540903E-2,-5.7617195E-2],"categories":[],"categories_nodes":[],"categories_segments":[],"categories_sizes":[],"default_left":[0,0,0,0,0,0,0,0,0,0,0,0,0],"id":30,"left_children":[1,3,5,7,-1,9,11,-1,-1,-1,-1,-1,-1],"loss_changes":[9.632728E1,2.0066711E1,5.994854E1,1.3170456E1,0E0,3.0022339E1,3.427661E1,0E0,0E0,0E0,0E0,0E0,0E0],"parents":[2147483647,0,0,1,1,2,2,3,3,5,5,6,6],"right_children":[2,4,6,8,-1,10,12,-1,-1,-1,-1,-1,-1],"split_conditions":[-7.418578E-2,5.2154835E-2,1.8836085E-2,-2.2282193E-3,-6.1839275E-2,5.0722886E-2,7.851581E-3,9.319283E-2,-3.9965108E-2,-4.3692544E-2,9.456935E-2,7.540903E-2,-5.7617195E-2],"split_indices":[942,855,772,928,0,76,92,0,0,0,0,0,0],"split_type":[0,0,0,0,0,0,0,0,0,0,0,0,0],"sum_hessian":[7.133118E2,1.606849E2,5.5262695E2,1.4999948E2,1.0685412E1,4.264185E2,1.2620845E2,1.414978E2,8.501685E0,4.085435E2,1.787501E1,9.849858E1,2.7709864E1],"tree_param":{"num_deleted":"0","num_feature":"1024","num_nodes":"13","size_leaf_vector":"1"}},{"base_weights":[-1.5019038E-2,7.2146046E-1,-6.27147E-2,9.196524E-2,-6.0826924E-2],"categories":[],"categories_nodes":[],"categories_segments":[],"categories_sizes":[],"default_left":[0,0,0,0,0],"id":31,"left_children":[1,3,-1,-1,-1],"loss_changes":[2.8709357E2,5.367534E1,0E0,0E0,0E0],"parents":[2147483647,0,0,1,1],"right_children":[2,4,-1,-1,-1],"split_conditions":[-3.2252032E-2,-4.0550034E-2,-6.27147E-2,9.196524E-2,-6.0826924E-2],"split_indices":[790,680,0,0,0],"split_type":[0,0,0,0,0],"sum_hessian":[6.803479E2,2.9708923E2,3.8325867E2,2.68626E2,2.8463226E1],"tree_param":{"num_deleted":"0","num_feature":"1024","num_nodes":"5","size_leaf_vector":"1"}},{"base_weights":[1.9296873E-2,5.5112004E-1,-3.8019574E-1,6.8194425E-1,-3.162406E-1,-4.7866845E-1,6.022964E-1,1.5465289E-2,8.619189E-2,6.592176E-2,-5.862956E-2,6.0862307E-2,-5.6271218E-2,1.0622457E-1,-7.6283426E-3],"categories":[],"categories_nodes":[],"categories_segments":[],"categories_sizes":[],"default_left":[0,0,0,0,0,0,0,0,0,0,0,0,0,0,0],"id":32,"left_children":[1,3,5,7,9,11,13,-1,-1,-1,-1,-1,-1,-1,-1],"loss_changes":[1.4691154E2,3.38713E1,3.8493874E1,1.7055984E1,8.890946E0,1.8149857E1,9.656718E0,0E0,0E0,0E0,0E0,0E0,0E0,0E0,0E0],"parents":[2147483647,0,0,1,1,2,2,3,3,4,4,5,5,6,6],"right_children":[2,4,6,8,10,12,14,-1,-1,-1,-1,-1,-1,-1,-1],"split_conditions":[3.5089569E-3,1.1872633E-2,1.1628849E-3,-6.962268E-2,-2.5196036E-2,-3.7436966E-2,1.3120432E-2,1.5465289E-2,8.619189E-2,6.592176E-2,-5.862956E-2,6.0862307E-2,-5.6271218E-2,1.0622457E-1,-7.6283426E-3],"split_indices":[881,819,612,942,106,876,998,0,0,0,0,0,0,0,0],"split_type":[0,0,0,0,0,0,0,0,0,0,0,0,0,0,0],"sum_hessian":[6.8949426E2,2.9559924E2,3.9389502E2,2.5704312E2,3.8556103E1,3.5847842E2,3.5416595E1,4.854996E1,2.0849316E2,7.3477445E0,3.1208359E1,1.5039955E1,3.4343848E2,2.2113808E1,1.3302787E1],"tree_param":{"num_deleted":"0","num_feature":"1024","num_nodes":"15","size_leaf_vector":"1"}},{"base_weights":[3.8211646E-3,5.075691E-1,-3.7142286E-1,-1.17427565E-1,7.275484E-1,3.9591396E-1,-5.0737756E-1,-5.8672227E-2,5.194256E-2,-4.2847585E-2,8.37451E-2,7.5483404E-2,-6.043283E-2,4.393142E-2,-5.8410794E-2],"categories":[],"categories_nodes":[],"categories_segments":[],"categories_sizes":[],"default_left":[0,0,0,0,0,0,0,0,0,0,0,0,0,0,0],"id":33,"left_children":[1,3,5,7,9,11,13,-1,-1,-1,-1,-1,-1,-1,-1],"loss_changes":[1.3005377E2,4.0466675E1,4.1335823E1,2.0367477E1,1.3891151E1,1.8230242E1,1.2138077E1,0E0,0E0,0E0,0E0,0E0,0E0,0E0,0E0],"parents":[2147483647,0,0,1,1,2,2,3,3,4,4,5,5,6,6],"right_children":[2,4,6,8,10,12,14,-1,-1,-1,-1,-1,-1,-1,-1],"split_conditions":[-4.6112083E-2,1.24937575E-2,-1.6948527E-2,5.30576E-2,-6.486143E-2,-1.4434665E-2,-3.0711684E-2,-5.8672227E-2,5.194256E-2,-4.2847585E-2,8.37451E-2,7.5483404E-2,-6.043283E-2,4.393142E-2,-5.8410794E-2],"split_indices":[391,672,653,913,577,514,273,0,0,0,0,0,0,0,0],"split_type":[0,0,0,0,0,0,0,0,0,0,0,0,0,0,0],"sum_hessian":[6.8601447E2,2.927109E2,3.933036E2,7.6325134E1,2.1638576E2,5.8908455E1,3.3439514E2,4.4560547E1,3.1764587E1,9.831097E0,2.0655466E2,4.4748425E1,1.4160031E1,1.3133877E1,3.2126126E2],"tree_param":{"num_deleted":"0","num_feature":"1024","num_nodes":"15","size_leaf_vector":"1"}},{"base_weights":[2.1221297E-2,-2.7917802E-1,4.463786E-1,2.4710706E-1,-4.390349E-1,-3.3111915E-1,6.118667E-1,-4.8088193E-2,7.033356E-2,-5.2451488E-2,8.0258794E-2,9.711158E-2,-6.330059E-2,7.7789515E-2,-3.1186199E-2],"categories":[],"categories_nodes":[],"categories_segments":[],"categories_sizes":[],"default_left":[0,0,0,0,0,0,0,0,0,0,0,0,0,0,0],"id":34,"left_children":[1,3,5,7,9,11,13,-1,-1,-1,-1,-1,-1,-1,-1],"loss_changes":[9.008007E1,3.488264E1,3.7772957E1,2.801348E1,1.9741837E1,1.7296486E1,2.5341621E1,0E0,0E0,0E0,0E0,0E0,0E0,0E0,0E0],"parents":[2147483647,0,0,1,1,2,2,3,3,4,4,5,5,6,6],"right_children":[2,4,6,8,10,12,14,-1,-1,-1,-1,-1,-1,-1,-1],"split_conditions":[2.9996226E-2,-3.2226905E-2,-3.6959622E-2,4.5996886E-2,7.3068075E-2,-4.9401317E-3,-1.2360466E-2,-4.8088193E-2,7.033356E-2,-5.2451488E-2,8.0258794E-2,9.711158E-2,-6.330059E-2,7.7789515E-2,-3.1186199E-2],"split_indices":[529,911,260,684,1023,855,93,0,0,0,0,0,0,0,0],"split_type":[0,0,0,0,0,0,0,0,0,0,0,0,0,0,0],"sum_hessian":[7.033345E2,4.123369E2,2.909976E2,9.593881E1,3.163981E2,5.089261E1,2.4010498E2,3.5531242E1,6.040757E1,3.0387338E2,1.25246935E1,8.414344E0,4.2478264E1,2.1308804E2,2.7016941E1],"tree_param":{"num_deleted":"0","num_feature":"1024","num_nodes":"15","size_leaf_vector":"1"}},{"base_weights":[-1.9945383E-2,6.7494965E-1,-6.194035E-2,8.0823785E-1,-6.009812E-2,8.703831E-2,5.4263263E-3],"categories":[],"categories_nodes":[],"categories_segments":[],"categories_sizes":[],"default_left":[0,0,0,0,0,0,0],"id":35,"left_children":[1,3,-1,5,-1,-1,-1],"loss_changes":[2.5225542E2,4.8177032E1,0E0,1.0418396E0,0E0,0E0,0E0],"parents":[2147483647,0,0,1,1,3,3],"right_children":[2,4,-1,6,-1,-1,-1],"split_conditions":[-3.2252032E-2,-4.0550034E-2,-6.194035E-2,4.1363318E-2,-6.009812E-2,8.703831E-2,5.4263263E-3],"split_indices":[790,680,0,491,0,0,0],"split_type":[0,0,0,0,0,0,0],"sum_hessian":[6.472501E2,2.884932E2,3.587569E2,2.6073996E2,2.7753242E1,2.587994E2,1.9405482E0],"tree_param":{"num_deleted":"0","num_feature":"1024","num_nodes":"7","size_leaf_vector":"1"}},{"base_weights":[1.3547754E-2,4.31164E-1,-4.3821788E-1,7.43397E-1,6.422497E-2,-4.9755767E-1,8.201854E-1,8.5500516E-2,-4.4467803E-3,-1.4437929E-2,9.4749175E-2,-5.7179496E-2,5.5734526E-2,9.62591E-2,-5.2878936E-3],"categories":[],"categories_nodes":[],"categories_segments":[],"categories_sizes":[],"default_left":[0,0,0,0,0,0,0,0,0,0,0,0,0,0,0],"id":36,"left_children":[1,3,5,7,9,11,13,-1,-1,-1,-1,-1,-1,-1,-1],"loss_changes":[1.2668356E2,3.9926903E1,2.4495075E1,8.304741E0,2.654964E1,1.1911499E1,1.0776405E0,0E0,0E0,0E0,0E0,0E0,0E0,0E0,0E0],"parents":[2147483647,0,0,1,1,2,2,3,3,4,4,5,5,6,6],"right_children":[2,4,6,8,10,12,14,-1,-1,-1,-1,-1,-1,-1,-1],"split_conditions":[1.1535626E-2,1.0737743E-2,6.384986E-3,3.350086E-2,2.8469527E-2,-1.8104078E-3,9.870193E-3,8.5500516E-2,-4.4467803E-3,-1.4437929E-2,9.4749175E-2,-5.7179496E-2,5.5734526E-2,9.62591E-2,-5.2878936E-3],"split_indices":[881,170,612,948,56,771,47,0,0,0,0,0,0,0,0],"split_type":[0,0,0,0,0,0,0,0,0,0,0,0,0,0,0],"sum_hessian":[6.6947327E2,3.479088E2,3.2156445E2,1.8741182E2,1.6049701E2,3.0766135E2,1.3903107E1,1.7493015E2,1.2481668E1,1.2984871E2,3.0648304E1,2.973361E2,1.0325273E1,1.270373E1,1.1993773E0],"tree_param":{"num_deleted":"0","num_feature":"1024","num_nodes":"15","size_leaf_vector":"1"}},{"base_weights":[-8.979571E-3,4.6719557E-1,-4.1668594E-1,-1.8224557E-1,6.0778654E-1,9.204104E-2,-5.706773E-1,-6.776797E-2,3.441728E-2,-5.5186335E-2,7.1955316E-2,-5.229618E-2,5.4859262E-2,-6.1357148E-2,1.7446846E-3],"categories":[],"categories_nodes":[],"categories_segments":[],"categories_sizes":[],"default_left":[0,0,0,0,0,0,0,0,0,0,0,0,0,0,0],"id":37,"left_children":[1,3,5,7,9,11,13,-1,-1,-1,-1,-1,-1,-1,-1],"loss_changes":[1.2611917E2,2.747168E1,2.7468658E1,1.250845E1,1.8330765E1,2.0341885E1,4.7262573E-1,0E0,0E0,0E0,0E0,0E0,0E0,0E0,0E0],"parents":[2147483647,0,0,1,1,2,2,3,3,4,4,5,5,6,6],"right_children":[2,4,6,8,10,12,14,-1,-1,-1,-1,-1,-1,-1,-1],"split_conditions":[-1.6372526E-2,-1.4714594E-2,-6.77019E-2,4.6278317E-2,-8.341872E-3,-4.5601106E-3,1.4102103E-1,-6.776797E-2,3.441728E-2,-5.5186335E-2,7.1955316E-2,-5.229618E-2,5.4859262E-2,-6.1357148E-2,1.7446846E-3],"split_indices":[246,314,880,121,335,500,176,0,0,0,0,0,0,0,0],"split_type":[0,0,0,0,0,0,0,0,0,0,0,0,0,0,0],"sum_hessian":[6.476285E2,2.9866306E2,3.489654E2,5.309616E1,2.455669E2,8.11802E1,2.6778522E2,2.7877111E1,2.5219051E1,1.3030219E1,2.3253668E2,3.403433E1,4.7145874E1,2.66475E2,1.3102006E0],"tree_param":{"num_deleted":"0","num_feature":"1024","num_nodes":"15","size_leaf_vector":"1"}},{"base_weights":[1.0730969E-2,-2.674443E-1,4.0468574E-1,-4.601295E-1,1.5204537E-1,6.3452107E-1,-1.2554276E-1,7.2778806E-2,-5.3872123E-2,1.0363506E-1,-1.3398803E-2,7.5144656E-2,-6.906099E-2,6.364283E-2,-5.8953233E-2],"categories":[],"categories_nodes":[],"categories_segments":[],"categories_sizes":[],"default_left":[0,0,0,0,0,0,0,0,0,0,0,0,0,0,0],"id":38,"left_children":[1,3,5,7,9,11,13,-1,-1,-1,-1,-1,-1,-1,-1],"loss_changes":[7.386942E1,3.2006516E1,3.4075672E1,1.379007E1,2.8460936E1,1.7405891E1,2.6451893E1,0E0,0E0,0E0,0E0,0E0,0E0,0E0,0E0],"parents":[2147483647,0,0,1,1,2,2,3,3,4,4,5,5,6,6],"right_children":[2,4,6,8,10,12,14,-1,-1,-1,-1,-1,-1,-1,-1],"split_conditions":[2.9996226E-2,1.5000005E-2,1.0629046E-2,-5.7871927E-2,-2.8684689E-2,-6.011155E-3,5.0417826E-2,7.2778806E-2,-5.3872123E-2,1.0363506E-1,-1.3398803E-2,7.5144656E-2,-6.906099E-2,6.364283E-2,-5.8953233E-2],"split_indices":[529,656,576,873,405,768,913,0,0,0,0,0,0,0,0],"split_type":[0,0,0,0,0,0,0,0,0,0,0,0,0,0,0],"sum_hessian":[6.720743E2,3.941103E2,2.77964E2,2.6999567E2,1.24114624E2,1.9377338E2,8.4190605E1,9.383364E0,2.606123E2,3.082506E1,9.3289566E1,1.8442961E2,9.343767E0,3.1115278E1,5.3075325E1],"tree_param":{"num_deleted":"0","num_feature":"1024","num_nodes":"15","size_leaf_vector":"1"}},{"base_weights":[-1.3901671E-2,6.5518856E-1,-6.1206203E-2,7.680696E-1,-5.9056085E-2,8.253791E-2,-1.7047749E-3],"categories":[],"categories_nodes":[],"categories_segments":[],"categories_sizes":[],"default_left":[0,0,0,0,0,0,0],"id":39,"left_children":[1,3,-1,5,-1,-1,-1],"loss_changes":[2.2553497E2,3.7851845E1,0E0,7.140503E-1,0E0,0E0,0E0],"parents":[2147483647,0,0,1,1,3,3],"right_children":[2,4,-1,6,-1,-1,-1],"split_conditions":[-3.2252032E-2,-4.0550034E-2,-6.1206203E-2,4.1363318E-2,-5.9056085E-2,8.253791E-2,-1.7047749E-3],"split_indices":[790,680,0,491,0,0,0],"split_type":[0,0,0,0,0,0,0],"sum_hessian":[6.017518E2,2.7363864E2,3.2811316E2,2.505739E2,2.3064734E1,2.4945761E2,1.1162839E0],"tree_param":{"num_deleted":"0","num_feature":"1024","num_nodes":"7","size_leaf_vector":"1"}},{"base_weights":[1.7344807E-3,-3.1569785E-1,5.239734E-1,-4.286618E-1,5.7982504E-1,-2.735472E-1,6.618575E-1,6.821619E-2,-5.238251E-2,9.481029E-2,-4.2021226E-2,8.934789E-2,-5.9849672E-2,-2.4337692E-2,7.8498825E-2],"categories":[],"categories_nodes":[],"categories_segments":[],"categories_sizes":[],"default_left":[0,0,0,0,0,0,0,0,0,0,0,0,0,0,0],"id":40,"left_children":[1,3,5,7,9,11,13,-1,-1,-1,-1,-1,-1,-1,-1],"loss_changes":[1.0737725E2,4.100271E1,2.7108017E1,2.3639618E1,1.3929517E1,1.2137374E1,1.3556412E1,0E0,0E0,0E0,0E0,0E0,0E0,0E0,0E0],"parents":[2147483647,0,0,1,1,2,2,3,3,4,4,5,5,6,6],"right_children":[2,4,6,8,10,12,14,-1,-1,-1,-1,-1,-1,-1,-1],"split_conditions":[-4.2549707E-2,5.796499E-3,-8.2685806E-2,-3.338303E-2,1.8848712E-2,-3.4544926E-2,-3.4032237E-2,6.821619E-2,-5.238251E-2,9.481029E-2,-4.2021226E-2,8.934789E-2,-5.9849672E-2,-2.4337692E-2,7.8498825E-2],"split_indices":[880,485,942,323,881,730,397,0,0,0,0,0,0,0,0],"split_type":[0,0,0,0,0,0,0,0,0,0,0,0,0,0,0],"sum_hessian":[6.4572894E2,4.0186124E2,2.4386769E2,3.5731036E2,4.4550873E1,3.580247E1,2.0806523E2,1.8836426E1,3.3847394E2,3.3942688E1,1.0608184E1,6.946618E0,2.8855854E1,1.5422584E1,1.9264264E2],"tree_param":{"num_deleted":"0","num_feature":"1024","num_nodes":"15","size_leaf_vector":"1"}},{"base_weights":[5.9246435E-3,4.0048173E-1,-4.6611416E-1,-1.8063247E-1,5.897958E-1,-5.3538567E-1,1.0747456E-1,4.9960405E-2,-5.7221964E-2,-2.7919961E-2,7.426571E-2,8.621921E-2,-5.9084214E-2,6.0247425E-2,-6.1331708E-2],"categories":[],"categories_nodes":[],"categories_segments":[],"categories_sizes":[],"default_left":[0,0,0,0,0,0,0,0,0,0,0,0,0,0,0],"id":41,"left_children":[1,3,5,7,9,11,13,-1,-1,-1,-1,-1,-1,-1,-1],"loss_changes":[1.1922921E2,3.8467583E1,1.1638714E1,2.0089443E1,2.3585762E1,6.372223E0,1.0327396E1,0E0,0E0,0E0,0E0,0E0,0E0,0E0,0E0],"parents":[2147483647,0,0,1,1,2,2,3,3,4,4,5,5,6,6],"right_children":[2,4,6,8,10,12,14,-1,-1,-1,-1,-1,-1,-1,-1],"split_conditions":[-6.0416833E-2,2.9273788E-3,1.5572535E-2,-1.8336376E-2,-1.4229755E-2,-6.68617E-2,-3.239777E-2,4.9960405E-2,-5.7221964E-2,-2.7919961E-2,7.426571E-2,8.621921E-2,-5.9084214E-2,6.0247425E-2,-6.1331708E-2],"split_indices":[880,213,802,553,309,621,577,0,0,0,0,0,0,0,0],"split_type":[0,0,0,0,0,0,0,0,0,0,0,0,0,0,0],"sum_hessian":[6.381674E2,3.4769534E2,2.904721E2,8.544896E1,2.6224637E2,2.5923166E2,3.1240444E1,3.010283E1,5.534613E1,2.8522078E1,2.3372429E2,2.6592748E0,2.565724E2,1.8816998E1,1.2423448E1],"tree_param":{"num_deleted":"0","num_feature":"1024","num_nodes":"15","size_leaf_vector":"1"}},{"base_weights":[2.4627281E-2,-2.5076175E-1,4.153718E-1,1.8554017E-1,-4.2095256E-1,-7.585634E-2,6.541738E-1,-6.123543E-2,4.8686385E-2,-5.061217E-2,8.2322456E-2,-4.3598853E-2,6.0682792E-2,8.2868606E-2,3.4741533E-3],"categories":[],"categories_nodes":[],"categories_segments":[],"categories_sizes":[],"default_left":[0,0,0,0,0,0,0,0,0,0,0,0,0,0,0],"id":42,"left_children":[1,3,5,7,9,11,13,-1,-1,-1,-1,-1,-1,-1,-1],"loss_changes":[6.98698E1,2.8363892E1,3.1535664E1,2.2248913E1,1.7416641E1,1.915569E1,1.3517899E1,0E0,0E0,0E0,0E0,0E0,0E0,0E0,0E0],"parents":[2147483647,0,0,1,1,2,2,3,3,4,4,5,5,6,6],"right_children":[2,4,6,8,10,12,14,-1,-1,-1,-1,-1,-1,-1,-1],"split_conditions":[3.1142825E-2,-3.2452561E-3,-2.764431E-3,-1.6385447E-2,2.7197601E-2,3.230453E-2,-1.9922385E-3,-6.123543E-2,4.8686385E-2,-5.061217E-2,8.2322456E-2,-4.3598853E-2,6.0682792E-2,8.2868606E-2,3.4741533E-3],"split_indices":[529,232,720,574,892,494,168,0,0,0,0,0,0,0,0],"split_type":[0,0,0,0,0,0,0,0,0,0,0,0,0,0,0],"sum_hessian":[6.4733875E2,3.7992987E2,2.6740884E2,1.0658862E2,2.7334125E2,8.7695984E1,1.7971286E2,2.767066E1,7.891796E1,2.6243552E2,1.0905755E1,5.8096558E1,2.9599422E1,1.5031998E2,2.9392885E1],"tree_param":{"num_deleted":"0","num_feature":"1024","num_nodes":"15","size_leaf_vector":"1"}},{"base_weights":[-2.7248992E-2,6.2208694E-1,-6.0542338E-2,7.303436E-1,-5.8332875E-2,-3.0634388E-2,7.871738E-2],"categories":[],"categories_nodes":[],"categories_segments":[],"categories_sizes":[],"default_left":[0,0,0,0,0,0,0],"id":43,"left_children":[1,3,-1,5,-1,-1,-1],"loss_changes":[2.0128485E2,3.337539E1,0E0,1.5647278E0,0E0,0E0,0E0],"parents":[2147483647,0,0,1,1,3,3],"right_children":[2,4,-1,6,-1,-1,-1],"split_conditions":[-3.2252032E-2,-1.9046033E-2,-6.0542338E-2,-2.2729868E-3,-5.8332875E-2,-3.0634388E-2,7.871738E-2],"split_indices":[790,125,0,7,0,0,0],"split_type":[0,0,0,0,0,0,0],"sum_hessian":[5.733761E2,2.599325E2,3.134436E2,2.3821681E2,2.1715666E1,1.0224762E0,2.3719434E2],"tree_param":{"num_deleted":"0","num_feature":"1024","num_nodes":"7","size_leaf_vector":"1"}},{"base_weights":[1.564637E-2,3.809507E-1,-4.1890937E-1,-1.7491801E-1,5.583537E-1,-4.8126358E-1,7.13859E-1,-5.4580692E-2,5.0597657E-2,7.20926E-2,-1.4654727E-2,-5.5384725E-2,6.1439708E-2,9.073732E-2,-3.825395E-2],"categories":[],"categories_nodes":[],"categories_segments":[],"categories_sizes":[],"default_left":[0,0,0,0,0,0,0,0,0,0,0,0,0,0,0],"id":44,"left_children":[1,3,5,7,9,11,13,-1,-1,-1,-1,-1,-1,-1,-1],"loss_changes":[9.816013E1,3.322379E1,2.0291992E1,1.8065622E1,2.0585258E1,1.0639099E1,2.4837108E0,0E0,0E0,0E0,0E0,0E0,0E0,0E0,0E0],"parents":[2147483647,0,0,1,1,2,2,3,3,4,4,5,5,6,6],"right_children":[2,4,6,8,10,12,14,-1,-1,-1,-1,-1,-1,-1,-1],"split_conditions":[1.1535626E-2,-6.9155075E-2,5.5346475E-3,-4.071917E-3,4.1063923E-2,1.535267E-2,3.686E-2,-5.4580692E-2,5.0597657E-2,7.20926E-2,-1.4654727E-2,-5.5384725E-2,6.1439708E-2,9.073732E-2,-3.825395E-2],"split_indices":[881,942,612,968,469,659,799,0,0,0,0,0,0,0,0],"split_type":[0,0,0,0,0,0,0,0,0,0,0,0,0,0,0],"sum_hessian":[6.163454E2,3.3492114E2,2.814243E2,8.103205E1,2.538891E2,2.672864E2,1.4137868E1,5.3536602E1,2.7495447E1,2.1771799E2,3.617111E1,2.588425E2,8.443923E0,1.2747009E1,1.3908584E0],"tree_param":{"num_deleted":"0","num_feature":"1024","num_nodes":"15","size_leaf_vector":"1"}},{"base_weights":[-2.7702702E-3,3.4887397E-1,-4.471122E-1,5.568803E-1,-8.7571755E-2,-5.2987283E-1,1.8803345E-1,6.962974E-2,-3.290193E-2,-4.7460377E-2,4.221116E-2,-5.8172233E-2,5.588384E-2,7.4464425E-2,-5.959653E-2],"categories":[],"categories_nodes":[],"categories_segments":[],"categories_sizes":[],"default_left":[0,0,0,0,0,0,0,0,0,0,0,0,0,0,0],"id":45,"left_children":[1,3,5,7,9,11,13,-1,-1,-1,-1,-1,-1,-1,-1],"loss_changes":[9.528468E1,3.095361E1,1.4260601E1,1.8959946E1,1.9191607E1,3.7907562E0,1.2426622E1,0E0,0E0,0E0,0E0,0E0,0E0,0E0,0E0],"parents":[2147483647,0,0,1,1,2,2,3,3,4,4,5,5,6,6],"right_children":[2,4,6,8,10,12,14,-1,-1,-1,-1,-1,-1,-1,-1],"split_conditions":[-5.9826784E-2,-6.7380033E-3,5.7842612E-2,2.9444197E-2,3.9474E-3,5.9955962E-2,6.459156E-3,6.962974E-2,-3.290193E-2,-4.7460377E-2,4.221116E-2,-5.8172233E-2,5.588384E-2,7.4464425E-2,-5.959653E-2],"split_indices":[880,273,614,491,489,211,352,0,0,0,0,0,0,0,0],"split_type":[0,0,0,0,0,0,0,0,0,0,0,0,0,0,0],"sum_hessian":[6.078225E2,3.3942358E2,2.683989E2,2.2968279E2,1.0974081E2,2.3760437E2,3.079454E1,2.073644E2,2.231839E1,6.3167965E1,4.6572838E1,2.349692E2,2.635169E0,1.8348888E1,1.2445653E1],"tree_param":{"num_deleted":"0","num_feature":"1024","num_nodes":"15","size_leaf_vector":"1"}},{"base_weights":[9.2663115E-4,-2.421197E-1,3.8385224E-1,1.795673E-1,-4.1347432E-1,-1.9993055E-1,5.578746E-1,-4.018156E-2,6.920548E-2,-4.8774637E-2,6.1063148E-2,-5.6445364E-2,3.8595747E-2,7.775042E-2,7.877878E-3],"categories":[],"categories_nodes":[],"categories_segments":[],"categories_sizes":[],"default_left":[0,0,0,0,0,0,0,0,0,0,0,0,0,0,0],"id":46,"left_children":[1,3,5,7,9,11,13,-1,-1,-1,-1,-1,-1,-1,-1],"loss_changes":[5.965969E1,2.840941E1,2.539674E1,2.9828735E1,1.1940102E1,1.0830574E1,1.5658245E1,0E0,0E0,0E0,0E0,0E0,0E0,0E0,0E0],"parents":[2147483647,0,0,1,1,2,2,3,3,4,4,5,5,6,6],"right_children":[2,4,6,8,10,12,14,-1,-1,-1,-1,-1,-1,-1,-1],"split_conditions":[2.0024436E-2,-1.6478702E-2,-1.768099E-2,3.846612E-2,3.2895043E-2,3.3163104E-2,3.7574847E-3,-4.018156E-2,6.920548E-2,-4.8774637E-2,6.1063148E-2,-5.6445364E-2,3.8595747E-2,7.775042E-2,7.877878E-3],"split_indices":[760,659,374,684,561,948,92,0,0,0,0,0,0,0,0],"split_type":[0,0,0,0,0,0,0,0,0,0,0,0,0,0,0],"sum_hessian":[6.390302E2,3.9113867E2,2.4789153E2,1.1300253E2,2.7813614E2,5.689162E1,1.9099991E2,5.174017E1,6.1262367E1,2.671367E2,1.0999441E1,3.594215E1,2.094947E1,1.4121463E2,4.9785286E1],"tree_param":{"num_deleted":"0","num_feature":"1024","num_nodes":"15","size_leaf_vector":"1"}},{"base_weights":[-3.5656754E-2,5.914901E-1,-5.9990887E-2,6.9841397E-1,-5.7507377E-2,-3.5704345E-2,7.554382E-2],"categories":[],"categories_nodes":[],"categories_segments":[],"categories_sizes":[],"default_left":[0,0,0,0,0,0,0],"id":47,"left_children":[1,3,-1,5,-1,-1,-1],"loss_changes":[1.7728941E2,2.999633E1,0E0,2.0501099E0,0E0,0E0,0E0],"parents":[2147483647,0,0,1,1,3,3],"right_children":[2,4,-1,6,-1,-1,-1],"split_conditions":[-3.2252032E-2,-8.223458E-3,-5.9990887E-2,7.432315E-3,-5.7507377E-2,-3.5704345E-2,7.554382E-2],"split_indices":[790,567,0,371,0,0,0],"split_type":[0,0,0,0,0,0,0],"sum_hessian":[5.362652E2,2.4434961E2,2.9191562E2,2.235605E2,2.0789099E1,1.3691603E0,2.2219135E2],"tree_param":{"num_deleted":"0","num_feature":"1024","num_nodes":"7","size_leaf_vector":"1"}},{"base_weights":[-1.1394317E-3,4.5387268E-1,-3.3322287E-1,-5.3342476E-2,6.458904E-1,6.028529E-1,-4.3076754E-1,9.316088E-2,-4.2658936E-2,7.578495E-2,2.51519E-3,-5.4850772E-2,8.2869105E-2,-5.043396E-2,7.7015065E-2],"categories":[],"categories_nodes":[],"categories_segments":[],"categories_sizes":[],"default_left":[0,0,0,0,0,0,0,0,0,0,0,0,0,0,0],"id":48,"left_children":[1,3,5,7,9,11,13,-1,-1,-1,-1,-1,-1,-1,-1],"loss_changes":[8.755836E1,2.3845722E1,3.084655E1,2.2079979E1,6.8964157E0,6.5388107E0,1.458506E1,0E0,0E0,0E0,0E0,0E0,0E0,0E0,0E0],"parents":[2147483647,0,0,1,1,2,2,3,3,4,4,5,5,6,6],"right_children":[2,4,6,8,10,12,14,-1,-1,-1,-1,-1,-1,-1,-1],"split_conditions":[1.431295E-2,-2.6176462E-2,1.9827085E-3,-3.984039E-2,3.0686868E-2,-8.19472E-2,2.3539134E-3,9.316088E-2,-4.2658936E-2,7.578495E-2,2.51519E-3,-5.4850772E-2,8.2869105E-2,-5.043396E-2,7.7015065E-2],"split_indices":[813,888,948,374,715,880,810,0,0,0,0,0,0,0,0],"split_type":[0,0,0,0,0,0,0,0,0,0,0,0,0,0,0],"sum_hessian":[5.7746436E2,2.4348322E2,3.3398114E2,6.706172E1,1.7642148E2,3.1029547E1,3.029516E2,1.7831942E1,4.9229782E1,1.6017134E2,1.6250141E1,3.877375E0,2.715217E1,2.9316617E2,9.785432E0],"tree_param":{"num_deleted":"0","num_feature":"1024","num_nodes":"15","size_leaf_vector":"1"}},{"base_weights":[-7.316589E-3,3.9653394E-1,-3.8806498E-1,-2.2963378E-1,5.292423E-1,-4.9607107E-1,3.5582632E-1,4.0868547E-2,-5.168303E-2,-4.9755275E-2,6.3560694E-2,4.456495E-2,-5.581703E-2,-5.7501882E-2,7.229284E-2],"categories":[],"categories_nodes":[],"categories_segments":[],"categories_sizes":[],"default_left":[0,0,0,0,0,0,0,0,0,0,0,0,0,0,0],"id":49,"left_children":[1,3,5,7,9,11,13,-1,-1,-1,-1,-1,-1,-1,-1],"loss_changes":[8.9002686E1,2.3463501E1,2.411303E1,7.9111323E0,1.5270409E1,6.3411026E0,1.1328957E1,0E0,0E0,0E0,0E0,0E0,0E0,0E0,0E0],"parents":[2147483647,0,0,1,1,2,2,3,3,4,4,5,5,6,6],"right_children":[2,4,6,8,10,12,14,-1,-1,-1,-1,-1,-1,-1,-1],"split_conditions":[-1.6372526E-2,-1.4714594E-2,4.3243603E-3,-5.866582E-2,-1.2453073E-3,-1.2851454E-2,2.4240319E-2,4.0868547E-2,-5.168303E-2,-4.9755275E-2,6.3560694E-2,4.456495E-2,-5.581703E-2,-5.7501882E-2,7.229284E-2],"split_indices":[246,314,130,455,464,217,851,0,0,0,0,0,0,0,0],"split_type":[0,0,0,0,0,0,0,0,0,0,0,0,0,0,0],"sum_hessian":[5.768203E2,2.7989795E2,2.969224E2,4.8819386E1,2.3107855E2,2.5956857E2,3.7353806E1,1.4156804E1,3.4662582E1,1.3794502E1,2.1728406E2,6.705558E0,2.5286302E2,9.672252E0,2.7681555E1],"tree_param":{"num_deleted":"0","num_feature":"1024","num_nodes":"15","size_leaf_vector":"1"}},{"base_weights":[1.411956E-2,3.4258536E-1,-2.5644627E-1,5.6716335E-1,-2.2929752E-1,-4.2748308E-1,2.5183007E-1,-3.2989256E-2,7.166738E-2,-5.134708E-2,3.891425E-2,6.983921E-2,-5.1333003E-2,5.83595E-2,-5.5921335E-2],"categories":[],"categories_nodes":[],"categories_segments":[],"categories_sizes":[],"default_left":[0,0,0,0,0,0,0,0,0,0,0,0,0,0,0],"id":50,"left_children":[1,3,5,7,9,11,13,-1,-1,-1,-1,-1,-1,-1,-1],"loss_changes":[5.4478176E1,3.5687286E1,2.9330856E1,1.8132133E1,1.1889578E1,1.4578041E1,1.968776E1,0E0,0E0,0E0,0E0,0E0,0E0,0E0,0E0],"parents":[2147483647,0,0,1,1,2,2,3,3,4,4,5,5,6,6],"right_children":[2,4,6,8,10,12,14,-1,-1,-1,-1,-1,-1,-1,-1],"split_conditions":[-1.21353185E-2,-4.6576792E-3,3.831642E-2,-2.2051005E-2,5.470708E-4,-7.887004E-2,-1.4950914E-2,-3.2989256E-2,7.166738E-2,-5.134708E-2,3.891425E-2,6.983921E-2,-5.1333003E-2,5.83595E-2,-5.5921335E-2],"split_indices":[193,512,848,359,138,942,873,0,0,0,0,0,0,0,0],"split_type":[0,0,0,0,0,0,0,0,0,0,0,0,0,0,0],"sum_hessian":[6.1100995E2,2.758559E2,3.3515408E2,1.9807877E2,7.777713E1,2.5088826E2,8.426582E1,2.060944E1,1.7746931E2,5.4800606E1,2.2976528E1,1.1078943E1,2.3980931E2,6.1310776E1,2.295505E1],"tree_param":{"num_deleted":"0","num_feature":"1024","num_nodes":"15","size_leaf_vector":"1"}},{"base_weights":[-3.7391644E-2,5.541392E-1,-5.934804E-2,6.723022E-1,-5.809314E-2,-3.631541E-2,7.283618E-2],"categories":[],"categories_nodes":[],"categories_segments":[],"categories_sizes":[],"default_left":[0,0,0,0,0,0,0],"id":51,"left_children":[1,3,-1,5,-1,-1,-1],"loss_changes":[1.5896458E2,3.178775E1,0E0,2.1447525E0,0E0,0E0,0E0],"parents":[2147483647,0,0,1,1,3,3],"right_children":[2,4,-1,6,-1,-1,-1],"split_conditions":[-8.223458E-3,-1.1722569E-2,-5.934804E-2,2.9544136E-2,-5.809314E-2,-3.631541E-2,7.283618E-2],"split_indices":[567,593,0,15,0,0,0],"split_type":[0,0,0,0,0,0,0],"sum_hessian":[5.173497E2,2.4135938E2,2.759903E2,2.182437E2,2.3115664E1,1.5206635E0,2.1672304E2],"tree_param":{"num_deleted":"0","num_feature":"1024","num_nodes":"7","size_leaf_vector":"1"}},{"base_weights":[4.896487E-3,3.4432223E-1,-4.1056287E-1,4.547223E-1,-3.9688373E-1,-4.7353828E-1,5.885035E-1,5.832488E-2,-2.9434206E-2,-5.4154605E-2,7.3271915E-2,-5.4693893E-2,5.7000086E-2,-4.5139536E-2,8.935211E-2],"categories":[],"categories_nodes":[],"categories_segments":[],"categories_sizes":[],"default_left":[0,0,0,0,0,0,0,0,0,0,0,0,0,0,0],"id":52,"left_children":[1,3,5,7,9,11,13,-1,-1,-1,-1,-1,-1,-1,-1],"loss_changes":[7.86958E1,2.5312237E1,1.60663E1,1.78466E1,5.1222043E0,9.269253E0,4.174912E0,0E0,0E0,0E0,0E0,0E0,0E0,0E0,0E0],"parents":[2147483647,0,0,1,1,2,2,3,3,4,4,5,5,6,6],"right_children":[2,4,6,8,10,12,14,-1,-1,-1,-1,-1,-1,-1,-1],"split_conditions":[1.1535626E-2,1.7878877E-2,-2.5668183E-2,7.05681E-2,6.6031315E-3,5.5346475E-3,-1.336886E-2,5.832488E-2,-2.9434206E-2,-5.4154605E-2,7.3271915E-2,-5.4693893E-2,5.7000086E-2,-4.5139536E-2,8.935211E-2],"split_indices":[881,819,880,1023,485,612,340,0,0,0,0,0,0,0,0],"split_type":[0,0,0,0,0,0,0,0,0,0,0,0,0,0,0],"sum_hessian":[5.560541E2,3.0612476E2,2.4992934E2,2.667759E2,3.934884E1,2.3560422E2,1.4325115E1,2.3755968E2,2.9216242E1,3.6218628E1,3.1302106E0,2.2755354E2,8.050673E0,2.6728652E0,1.165225E1],"tree_param":{"num_deleted":"0","num_feature":"1024","num_nodes":"15","size_leaf_vector":"1"}},{"base_weights":[5.242592E-3,3.3210665E-1,-4.330944E-1,8.716962E-3,6.2784064E-1,2.6834714E-1,-5.017594E-1,3.0332094E-2,-5.475909E-2,7.443593E-2,-3.716858E-2,8.131344E-2,-5.4374583E-2,-5.6948323E-2,1.1926215E-2],"categories":[],"categories_nodes":[],"categories_segments":[],"categories_sizes":[],"default_left":[0,0,0,0,0,0,0,0,0,0,0,0,0,0,0],"id":53,"left_children":[1,3,5,7,9,11,13,-1,-1,-1,-1,-1,-1,-1,-1],"loss_changes":[7.961663E1,3.0436733E1,1.1567543E1,2.2047962E1,1.1274803E1,8.720225E0,4.12809E0,0E0,0E0,0E0,0E0,0E0,0E0,0E0,0E0],"parents":[2147483647,0,0,1,1,2,2,3,3,4,4,5,5,6,6],"right_children":[2,4,6,8,10,12,14,-1,-1,-1,-1,-1,-1,-1,-1],"split_conditions":[-6.0416833E-2,1.0518503E-2,-2.2049278E-2,-8.0462545E-3,2.9444197E-2,-9.614232E-3,3.12144E-2,3.0332094E-2,-5.475909E-2,7.443593E-2,-3.716858E-2,8.131344E-2,-5.4374583E-2,-5.6948323E-2,1.1926215E-2],"split_indices":[880,576,240,304,491,674,458,0,0,0,0,0,0,0,0],"split_type":[0,0,0,0,0,0,0,0,0,0,0,0,0,0,0],"sum_hessian":[5.5368085E2,3.1730884E2,2.3637204E2,1.5205922E2,1.652496E2,2.0816338E1,2.1555571E2,9.981958E1,5.223964E1,1.5474063E2,1.0508981E1,1.2758366E1,8.057972E0,2.0542491E2,1.0130802E1],"tree_param":{"num_deleted":"0","num_feature":"1024","num_nodes":"15","size_leaf_vector":"1"}},{"base_weights":[1.8780218E-2,-3.2882556E-1,2.8089538E-1,6.0864383E-1,-4.2772755E-1,-1.7830834E-1,5.177314E-1,9.101318E-2,-5.353872E-2,7.407952E-2,-5.304331E-2,-3.0643754E-2,8.165735E-2,6.922852E-2,-2.7257163E-2],"categories":[],"categories_nodes":[],"categories_segments":[],"categories_sizes":[],"default_left":[0,0,0,0,0,0,0,0,0,0,0,0,0,0,0],"id":54,"left_children":[1,3,5,7,9,11,13,-1,-1,-1,-1,-1,-1,-1,-1],"loss_changes":[5.3200817E1,2.3536177E1,3.6291412E1,6.973012E0,1.7728436E1,1.1831424E1,2.2154583E1,0E0,0E0,0E0,0E0,0E0,0E0,0E0,0E0],"parents":[2147483647,0,0,1,1,2,2,3,3,4,4,5,5,6,6],"right_children":[2,4,6,8,10,12,14,-1,-1,-1,-1,-1,-1,-1,-1],"split_conditions":[-3.405818E-2,-3.3923734E-2,8.256795E-5,-2.7043803E-2,-5.921685E-2,2.3550035E-2,-1.2360466E-2,9.101318E-2,-5.353872E-2,7.407952E-2,-5.304331E-2,-3.0643754E-2,8.165735E-2,6.922852E-2,-2.7257163E-2],"split_indices":[85,662,772,710,255,951,93,0,0,0,0,0,0,0,0],"split_type":[0,0,0,0,0,0,0,0,0,0,0,0,0,0,0],"sum_hessian":[5.8188715E2,2.5004018E2,3.3184695E2,2.336974E1,2.2667044E2,1.1299906E2,2.1884789E2,1.937217E1,3.9975705E0,1.2475079E1,2.1419536E2,1.0198042E2,1.1018643E1,1.87575E2,3.1272894E1],"tree_param":{"num_deleted":"0","num_feature":"1024","num_nodes":"15","size_leaf_vector":"1"}},{"base_weights":[-2.436714E-2,5.5881196E-1,-5.8917034E-2,6.5434235E-1,-5.626997E-2,7.050267E-2,2.70818E-3],"categories":[],"categories_nodes":[],"categories_segments":[],"categories_sizes":[],"default_left":[0,0,0,0,0,0,0],"id":55,"left_children":[1,3,-1,5,-1,-1,-1],"loss_changes":[1.4714162E2,2.391204E1,0E0,6.1182404E-1,0E0,0E0,0E0],"parents":[2147483647,0,0,1,1,3,3],"right_children":[2,4,-1,6,-1,-1,-1],"split_conditions":[-3.2252032E-2,-4.0550034E-2,-5.8917034E-2,4.1363318E-2,-5.626997E-2,7.050267E-2,2.70818E-3],"split_indices":[790,680,0,491,0,0,0],"split_type":[0,0,0,0,0,0,0],"sum_hessian":[4.7727744E2,2.2640575E2,2.5087169E2,2.084473E2,1.7958458E1,2.0683084E2,1.6164466E0],"tree_param":{"num_deleted":"0","num_feature":"1024","num_nodes":"7","size_leaf_vector":"1"}},{"base_weights":[1.5053254E-2,3.6409628E-1,-3.81498E-1,6.3203335E-2,6.4196813E-1,-4.8853132E-1,4.1351613E-1,4.580003E-2,-3.422836E-2,7.266262E-2,5.968809E-3,8.0286406E-2,-5.485426E-2,-3.3691816E-2,7.5782664E-2],"categories":[],"categories_nodes":[],"categories_segments":[],"categories_sizes":[],"default_left":[0,0,0,0,0,0,0,0,0,0,0,0,0,0,0],"id":56,"left_children":[1,3,5,7,9,11,13,-1,-1,-1,-1,-1,-1,-1,-1],"loss_changes":[7.498581E1,2.4048534E1,2.1784561E1,1.9637894E1,3.2379608E0,7.1263313E0,6.806249E0,0E0,0E0,0E0,0E0,0E0,0E0,0E0,0E0],"parents":[2147483647,0,0,1,1,2,2,3,3,4,4,5,5,6,6],"right_children":[2,4,6,8,10,12,14,-1,-1,-1,-1,-1,-1,-1,-1],"split_conditions":[1.8914405E-2,-1.080401E-2,1.2407209E-2,-1.0243674E-2,3.723318E-2,-5.4720953E-2,-1.4447007E-2,4.580003E-2,-3.422836E-2,7.266262E-2,5.968809E-3,8.0286406E-2,-5.485426E-2,-3.3691816E-2,7.5782664E-2],"split_indices":[218,600,141,876,715,546,662,0,0,0,0,0,0,0,0],"split_type":[0,0,0,0,0,0,0,0,0,0,0,0,0,0,0],"sum_hessian":[5.397488E2,2.8711395E2,2.5263484E2,1.3843613E2,1.4867783E2,2.2299797E2,2.9636864E1,7.084414E1,6.759198E1,1.3962509E2,9.05273E0,3.7121708E0,2.1928581E2,8.5217705E0,2.1115091E1],"tree_param":{"num_deleted":"0","num_feature":"1024","num_nodes":"15","size_leaf_vector":"1"}},{"base_weights":[-1.9447329E-2,-3.042078E-1,4.2022422E-1,5.1735E-1,-3.889666E-1,5.453808E-1,-2.0822522E-1,-5.0681427E-2,7.3743634E-2,-4.65907E-2,5.701737E-2,-3.4620117E-2,6.579697E-2,5.943264E-2,-6.27702E-2],"categories":[],"categories_nodes":[],"categories_segments":[],"categories_sizes":[],"default_left":[0,0,0,0,0,0,0,0,0,0,0,0,0,0,0],"id":57,"left_children":[1,3,5,7,9,11,13,-1,-1,-1,-1,-1,-1,-1,-1],"loss_changes":[6.534438E1,2.2255844E1,1.6251404E1,5.451213E0,1.2591892E1,1.0585522E1,1.0389423E1,0E0,0E0,0E0,0E0,0E0,0E0,0E0,0E0],"parents":[2147483647,0,0,1,1,2,2,3,3,4,4,5,5,6,6],"right_children":[2,4,6,8,10,12,14,-1,-1,-1,-1,-1,-1,-1,-1],"split_conditions":[1.2457316E-2,-6.840164E-2,9.1617005E-3,2.6119402E-2,4.894765E-2,-1.4471341E-2,-2.6017705E-2,-5.0681427E-2,7.3743634E-2,-4.65907E-2,5.701737E-2,-3.4620117E-2,6.579697E-2,5.943264E-2,-6.27702E-2],"split_indices":[213,347,426,496,309,358,246,0,0,0,0,0,0,0,0],"split_type":[0,0,0,0,0,0,0,0,0,0,0,0,0,0,0],"sum_hessian":[5.198945E2,3.1572083E2,2.0417366E2,2.9048923E1,2.866719E2,1.7037535E2,3.3798298E1,4.037468E0,2.5011456E1,2.7338254E2,1.3289352E1,1.2386359E1,1.57989E2,1.1045572E1,2.2752726E1],"tree_param":{"num_deleted":"0","num_feature":"1024","num_nodes":"15","size_leaf_vector":"1"}},{"base_weights":[1.9047625E-2,-3.1106237E-1,2.5642446E-1,3.7229776E-1,-4.355626E-1,-3.7195134E-1,3.8427648E-1,-4.4317167E-2,8.727553E-2,-5.8219578E-2,5.018965E-3,7.4625246E-2,-5.866696E-2,-1.4381528E-2,5.7814132E-2],"categories":[],"categories_nodes":[],"categories_segments":[],"categories_sizes":[],"default_left":[0,0,0,0,0,0,0,0,0,0,0,0,0,0,0],"id":58,"left_children":[1,3,5,7,9,11,13,-1,-1,-1,-1,-1,-1,-1,-1],"loss_changes":[4.3940662E1,2.012031E1,2.634533E1,1.3141695E1,1.04585E1,1.088898E1,2.2072887E1,0E0,0E0,0E0,0E0,0E0,0E0,0E0,0E0],"parents":[2147483647,0,0,1,1,2,2,3,3,4,4,5,5,6,6],"right_children":[2,4,6,8,10,12,14,-1,-1,-1,-1,-1,-1,-1,-1],"split_conditions":[-3.405818E-2,-1.4229755E-2,2.7254565E-2,5.0951536E-3,1.4280041E-2,-5.9220646E-2,-1.6506098E-2,-4.4317167E-2,8.727553E-2,-5.8219578E-2,5.018965E-3,7.4625246E-2,-5.866696E-2,-1.4381528E-2,5.7814132E-2],"split_indices":[85,309,684,843,868,89,553,0,0,0,0,0,0,0,0],"split_type":[0,0,0,0,0,0,0,0,0,0,0,0,0,0,0],"sum_hessian":[5.5873254E2,2.3358511E2,3.2514746E2,3.5691326E1,1.978938E2,5.4648438E1,2.7049902E2,1.2894117E1,2.2797209E1,1.6139778E2,3.649601E1,7.322728E0,4.732571E1,6.263897E1,2.0786005E2],"tree_param":{"num_deleted":"0","num_feature":"1024","num_nodes":"15","size_leaf_vector":"1"}},{"base_weights":[-3.703446E-2,5.42712E-1,-5.8425512E-2,-5.5521276E-2,6.803897E-2],"categories":[],"categories_nodes":[],"categories_segments":[],"categories_sizes":[],"default_left":[0,0,0,0,0],"id":59,"left_children":[1,3,-1,-1,-1],"loss_changes":[1.3301299E2,2.1221012E1,0E0,0E0,0E0],"parents":[2147483647,0,0,1,1],"right_children":[2,4,-1,-1,-1],"split_conditions":[-3.2252032E-2,1.6836865E-2,-5.8425512E-2,-5.5521276E-2,6.803897E-2],"split_indices":[790,492,0,0,0],"split_type":[0,0,0,0,0],"sum_hessian":[4.4859607E2,2.0973013E2,2.3886594E2,1.6583754E1,1.9314638E2],"tree_param":{"num_deleted":"0","num_feature":"1024","num_nodes":"5","size_leaf_vector":"1"}},{"base_weights":[2.0876601E-2,3.3158106E-1,-4.0351832E-1,6.48175E-1,7.435748E-2,3.340943E-1,-4.8101807E-1,-9.267011E-3,7.328017E-2,5.1000334E-2,-2.0846028E-2,7.018042E-2,-4.2100087E-2,-5.6251545E-2,1.7847259E-2],"categories":[],"categories_nodes":[],"categories_segments":[],"categories_sizes":[],"default_left":[0,0,0,0,0,0,0,0,0,0,0,0,0,0,0],"id":60,"left_children":[1,3,5,7,9,11,13,-1,-1,-1,-1,-1,-1,-1,-1],"loss_changes":[6.74839E1,2.4010159E1,1.2527504E1,3.6470337E0,1.7876402E1,5.216147E0,5.7898674E0,0E0,0E0,0E0,0E0,0E0,0E0,0E0,0E0],"parents":[2147483647,0,0,1,1,2,2,3,3,4,4,5,5,6,6],"right_children":[2,4,6,8,10,12,14,-1,-1,-1,-1,-1,-1,-1,-1],"split_conditions":[1.1535626E-2,-1.9384176E-4,4.4041337E-3,-7.074002E-2,-1.873363E-2,3.4421418E-2,-7.805868E-3,-9.267011E-3,7.328017E-2,5.1000334E-2,-2.0846028E-2,7.018042E-2,-4.2100087E-2,-5.6251545E-2,1.7847259E-2],"split_indices":[881,170,776,674,722,279,771,0,0,0,0,0,0,0,0],"split_type":[0,0,0,0,0,0,0,0,0,0,0,0,0,0,0],"sum_hessian":[5.0976443E2,2.9442856E2,2.1533588E2,1.3130135E2,1.6312721E2,2.0159039E1,1.9517683E2,6.214507E0,1.25086845E2,6.508085E1,9.8046364E1,1.4043147E1,6.1158905E0,1.8271242E2,1.2464422E1],"tree_param":{"num_deleted":"0","num_feature":"1024","num_nodes":"15","size_leaf_vector":"1"}},{"base_weights":[-4.7146142E-4,3.6044145E-1,-3.6414877E-1,4.4156307E-1,-4.4848737E-1,8.488511E-2,-5.340793E-1,5.7337217E-2,-1.2728662E-2,-6.288215E-2,4.7995552E-2,-5.065912E-2,5.801274E-2,4.8919436E-2,-5.8233574E-2],"categories":[],"categories_nodes":[],"categories_segments":[],"categories_sizes":[],"default_left":[0,0,0,0,0,0,0,0,0,0,0,0,0,0,0],"id":61,"left_children":[1,3,5,7,9,11,13,-1,-1,-1,-1,-1,-1,-1,-1],"loss_changes":[6.49588E1,1.6498177E1,1.88549E1,1.2045544E1,3.1569424E0,1.7767548E1,2.0823212E0,0E0,0E0,0E0,0E0,0E0,0E0,0E0,0E0],"parents":[2147483647,0,0,1,1,2,2,3,3,4,4,5,5,6,6],"right_children":[2,4,6,8,10,12,14,-1,-1,-1,-1,-1,-1,-1,-1],"split_conditions":[-1.6372526E-2,-1.4329331E-2,-6.77019E-2,3.0999655E-2,2.7371256E-2,1.5703881E-2,-7.536123E-2,5.7337217E-2,-1.2728662E-2,-6.288215E-2,4.7995552E-2,-5.065912E-2,5.801274E-2,4.8919436E-2,-5.8233574E-2],"split_indices":[246,771,880,439,549,851,887,0,0,0,0,0,0,0,0],"split_type":[0,0,0,0,0,0,0,0,0,0,0,0,0,0,0],"sum_hessian":[4.929022E2,2.4739581E2,2.4550638E2,2.2526022E2,2.2135586E1,6.753874E1,1.7796764E2,1.9281036E2,3.2449856E1,1.9457512E1,2.678074E0,3.0395557E1,3.7143185E1,1.3894489E0,1.7657819E2],"tree_param":{"num_deleted":"0","num_feature":"1024","num_nodes":"15","size_leaf_vector":"1"}},{"base_weights":[2.7976172E-2,-2.0631483E-1,3.382501E-1,-2.946131E-1,6.6503435E-1,5.6246984E-1,-2.108399E-2,4.5087215E-2,-3.8583256E-2,-4.1330297E-2,7.916372E-2,-5.7440694E-2,6.746994E-2,6.061202E-2,-3.5463236E-2],"categories":[],"categories_nodes":[],"categories_segments":[],"categories_sizes":[],"default_left":[0,0,0,0,0,0,0,0,0,0,0,0,0,0,0],"id":62,"left_children":[1,3,5,7,9,11,13,-1,-1,-1,-1,-1,-1,-1,-1],"loss_changes":[3.9092525E1,2.377561E1,1.8650188E1,1.3355738E1,2.535308E0,1.1036839E1,1.6581953E1,0E0,0E0,0E0,0E0,0E0,0E0,0E0,0E0],"parents":[2147483647,0,0,1,1,2,2,3,3,4,4,5,5,6,6],"right_children":[2,4,6,8,10,12,14,-1,-1,-1,-1,-1,-1,-1,-1],"split_conditions":[1.8444858E-2,5.0722886E-2,-3.539542E-3,-5.6909766E-2,-2.4222914E-2,6.9147744E-3,-2.007261E-2,4.5087215E-2,-3.8583256E-2,-4.1330297E-2,7.916372E-2,-5.7440694E-2,6.746994E-2,6.061202E-2,-3.5463236E-2],"split_indices":[760,76,372,873,61,529,443,0,0,0,0,0,0,0,0],"split_type":[0,0,0,0,0,0,0,0,0,0,0,0,0,0,0],"sum_hessian":[5.358054E2,3.0547397E2,2.3033145E2,2.7796796E2,2.750602E1,1.4148276E2,8.88487E1,2.3032322E1,2.5493562E2,1.5561469E0,2.5949873E1,7.872554E0,1.336102E2,3.0424908E1,5.8423794E1],"tree_param":{"num_deleted":"0","num_feature":"1024","num_nodes":"15","size_leaf_vector":"1"}},{"base_weights":[-4.1276965E-2,5.262607E-1,-5.7994857E-2,6.1610144E-1,-5.5024914E-2,6.668604E-2,-3.1196479E-2],"categories":[],"categories_nodes":[],"categories_segments":[],"categories_sizes":[],"default_left":[0,0,0,0,0,0,0],"id":63,"left_children":[1,3,-1,5,-1,-1,-1],"loss_changes":[1.1764434E2,1.8459423E1,0E0,1.3735199E0,0E0,0E0,0E0],"parents":[2147483647,0,0,1,1,3,3],"right_children":[2,4,-1,6,-1,-1,-1],"split_conditions":[-3.2252032E-2,-1.9046033E-2,-5.7994857E-2,-1.2035589E-2,-5.5024914E-2,6.668604E-2,-3.1196479E-2],"split_indices":[790,125,0,696,0,0,0],"split_type":[0,0,0,0,0,0,0],"sum_hessian":[4.1182672E2,1.9304764E2,2.1877907E2,1.7808195E2,1.4965695E1,1.7696603E2,1.1159207E0],"tree_param":{"num_deleted":"0","num_feature":"1024","num_nodes":"7","size_leaf_vector":"1"}},{"base_weights":[2.2730113E-3,3.793881E-1,-3.1522855E-1,5.7509476E-1,1.9840136E-2,-4.667335E-1,2.3451968E-1,1.2500687E-2,6.953411E-2,-2.992342E-2,5.3450514E-2,-5.5667546E-2,5.4401617E-2,-3.4479067E-2,6.182781E-2],"categories":[],"categories_nodes":[],"categories_segments":[],"categories_sizes":[],"default_left":[0,0,0,0,0,0,0,0,0,0,0,0,0,0,0],"id":64,"left_children":[1,3,5,7,9,11,13,-1,-1,-1,-1,-1,-1,-1,-1],"loss_changes":[5.7915703E1,1.5545893E1,2.1982155E1,4.8405685E0,1.1491303E1,1.1062637E1,1.1166027E1,0E0,0E0,0E0,0E0,0E0,0E0,0E0,0E0],"parents":[2147483647,0,0,1,1,2,2,3,3,4,4,5,5,6,6],"right_children":[2,4,6,8,10,12,14,-1,-1,-1,-1,-1,-1,-1,-1],"split_conditions":[1.15906205E-2,1.2974696E-2,-2.3362448E-2,-3.6468215E-2,-1.3196898E-2,-1.838355E-2,-4.4788294E-2,1.2500687E-2,6.953411E-2,-2.992342E-2,5.3450514E-2,-5.5667546E-2,5.4401617E-2,-3.4479067E-2,6.182781E-2],"split_indices":[218,908,72,341,612,880,733,0,0,0,0,0,0,0,0],"split_type":[0,0,0,0,0,0,0,0,0,0,0,0,0,0,0],"sum_hessian":[4.817017E2,2.2009142E2,2.616103E2,1.4212917E2,7.796225E1,2.0520807E2,5.6402218E1,2.0342209E1,1.2178695E2,4.8253384E1,2.970887E1,1.9494327E2,1.0264796E1,2.1541592E1,3.4860626E1],"tree_param":{"num_deleted":"0","num_feature":"1024","num_nodes":"15","size_leaf_vector":"1"}},{"base_weights":[-3.9110756E-3,3.1272933E-1,-3.4573206E-1,-4.3311393E-1,4.0200984E-1,-4.6249843E-1,3.0980045E-1,-6.0989022E-2,5.028572E-2,-2.8258689E-2,5.305113E-2,3.594358E-2,-5.4788467E-2,6.559923E-2,-5.4999195E-2],"categories":[],"categories_nodes":[],"categories_segments":[],"categories_sizes":[],"default_left":[0,0,0,0,0,0,0,0,0,0,0,0,0,0,0],"id":65,"left_children":[1,3,5,7,9,11,13,-1,-1,-1,-1,-1,-1,-1,-1],"loss_changes":[5.128044E1,1.6552488E1,1.7582392E1,3.5827951E0,1.3912544E1,7.863777E0,9.07851E0,0E0,0E0,0E0,0E0,0E0,0E0,0E0,0E0],"parents":[2147483647,0,0,1,1,2,2,3,3,4,4,5,5,6,6],"right_children":[2,4,6,8,10,12,14,-1,-1,-1,-1,-1,-1,-1,-1],"split_conditions":[-1.6372526E-2,3.502071E-4,4.3243603E-3,1.2396608E-2,-1.6287972E-3,-5.326291E-2,-1.5472914E-2,-6.0989022E-2,5.028572E-2,-2.8258689E-2,5.305113E-2,3.594358E-2,-5.4788467E-2,6.559923E-2,-5.4999195E-2],"split_indices":[246,992,130,276,307,453,488,0,0,0,0,0,0,0,0],"split_type":[0,0,0,0,0,0,0,0,0,0,0,0,0,0,0],"sum_hessian":[4.717919E2,2.4496115E2,2.2683073E2,2.5776329E1,2.1918483E2,1.9278542E2,3.4045322E1,2.2700426E1,3.0759025E0,2.6866901E1,1.9231793E2,1.0959599E1,1.8182582E2,2.5068333E1,8.976992E0],"tree_param":{"num_deleted":"0","num_feature":"1024","num_nodes":"15","size_leaf_vector":"1"}},{"base_weights":[3.1129854E-2,2.7838558E-1,-2.416071E-1,-1.1769486E-1,5.1012504E-1,1.2019089E-1,-4.5060563E-1,-3.6355887E-2,6.568753E-2,6.388359E-2,-3.8408976E-2,4.752254E-2,-4.4139825E-2,4.8342925E-2,-5.4984335E-2],"categories":[],"categories_nodes":[],"categories_segments":[],"categories_sizes":[],"default_left":[0,0,0,0,0,0,0,0,0,0,0,0,0,0,0],"id":66,"left_children":[1,3,5,7,9,11,13,-1,-1,-1,-1,-1,-1,-1,-1],"loss_changes":[3.462564E1,2.477406E1,1.852024E1,1.6500517E1,1.3089943E1,1.576109E1,9.106083E0,0E0,0E0,0E0,0E0,0E0,0E0,0E0,0E0],"parents":[2147483647,0,0,1,1,2,2,3,3,4,4,5,5,6,6],"right_children":[2,4,6,8,10,12,14,-1,-1,-1,-1,-1,-1,-1,-1],"split_conditions":[-9.993522E-3,-2.3825103E-2,5.221913E-3,1.2427908E-2,7.703138E-3,-3.910801E-3,-3.181013E-2,-3.6355887E-2,6.568753E-2,6.388359E-2,-3.8408976E-2,4.752254E-2,-4.4139825E-2,4.8342925E-2,-5.4984335E-2],"split_indices":[193,260,752,900,512,325,91,0,0,0,0,0,0,0,0],"split_type":[0,0,0,0,0,0,0,0,0,0,0,0,0,0,0],"sum_hessian":[5.1146365E2,2.6825262E2,2.4321104E2,9.9198456E1,1.6905415E2,8.920791E1,1.5400314E2,7.650534E1,2.2693111E1,1.5393987E2,1.5114297E1,5.557332E1,3.3634586E1,9.710227E0,1.4429292E2],"tree_param":{"num_deleted":"0","num_feature":"1024","num_nodes":"15","size_leaf_vector":"1"}},{"base_weights":[-3.745841E-2,5.094431E-1,-5.7614427E-2,6.057128E-1,-5.4740522E-2,6.5164E-2,6.719128E-3],"categories":[],"categories_nodes":[],"categories_segments":[],"categories_sizes":[],"default_left":[0,0,0,0,0,0,0],"id":67,"left_children":[1,3,-1,5,-1,-1,-1],"loss_changes":[1.0678006E2,1.8627811E1,0E0,2.8523636E-1,0E0,0E0,0E0],"parents":[2147483647,0,0,1,1,3,3],"right_children":[2,4,-1,6,-1,-1,-1],"split_conditions":[-3.2252032E-2,-4.0550034E-2,-5.7614427E-2,4.1363318E-2,-5.4740522E-2,6.5164E-2,6.719128E-3],"split_indices":[790,680,0,491,0,0,0],"split_type":[0,0,0,0,0,0,0],"sum_hessian":[3.8758188E2,1.8532628E2,2.0225558E2,1.6973228E2,1.5594E1,1.6852672E2,1.2055603E0],"tree_param":{"num_deleted":"0","num_feature":"1024","num_nodes":"7","size_leaf_vector":"1"}},{"base_weights":[-1.5569312E-4,5.638135E-1,-2.0727009E-1,1.7955358E-1,6.3918334E-1,-3.4144953E-1,4.742316E-1,-4.4546213E-2,6.454788E-2,-1.8910294E-2,7.017863E-2,-4.3837342E-2,4.3854125E-2,-3.7325457E-2,6.452362E-2],"categories":[],"categories_nodes":[],"categories_segments":[],"categories_sizes":[],"default_left":[0,0,0,0,0,0,0,0,0,0,0,0,0,0,0],"id":68,"left_children":[1,3,5,7,9,11,13,-1,-1,-1,-1,-1,-1,-1,-1],"loss_changes":[5.3629444E1,3.45689E0,3.0869375E1,5.7116756E0,1.5323715E0,1.4613308E1,6.1202106E0,0E0,0E0,0E0,0E0,0E0,0E0,0E0,0E0],"parents":[2147483647,0,0,1,1,2,2,3,3,4,4,5,5,6,6],"right_children":[2,4,6,8,10,12,14,-1,-1,-1,-1,-1,-1,-1,-1],"split_conditions":[1.78564E-2,-5.8630276E-2,1.1628849E-3,-3.542396E-2,-3.940561E-2,-1.405959E-2,-5.4158416E-2,-4.4546213E-2,6.454788E-2,-1.8910294E-2,7.017863E-2,-4.3837342E-2,4.3854125E-2,-3.7325457E-2,6.452362E-2],"split_indices":[355,880,612,482,168,880,241,0,0,0,0,0,0,0,0],"split_type":[0,0,0,0,0,0,0,0,0,0,0,0,0,0,0],"sum_hessian":[4.571316E2,1.22323746E2,3.3480783E2,2.0613205E1,1.0171054E2,2.801489E2,5.465895E1,8.574565E0,1.203864E1,1.8718858E0,9.983865E1,2.5719992E2,2.294895E1,7.1733503E0,4.7485603E1],"tree_param":{"num_deleted":"0","num_feature":"1024","num_nodes":"15","size_leaf_vector":"1"}},{"base_weights":[2.9667611E-3,3.2432243E-1,-3.455694E-1,4.767777E-1,-6.6022485E-2,9.475362E-2,-5.2614653E-1,5.7300948E-2,-3.7268955E-2,-4.326524E-2,5.5219814E-2,5.595406E-2,-3.2984637E-2,4.418962E-2,-5.743958E-2],"categories":[],"categories_nodes":[],"categories_segments":[],"categories_sizes":[],"default_left":[0,0,0,0,0,0,0,0,0,0,0,0,0,0,0],"id":69,"left_children":[1,3,5,7,9,11,13,-1,-1,-1,-1,-1,-1,-1,-1],"loss_changes":[4.993378E1,1.3834869E1,1.7055153E1,8.301975E0,1.3220387E1,1.1048049E1,1.768013E0,0E0,0E0,0E0,0E0,0E0,0E0,0E0,0E0],"parents":[2147483647,0,0,1,1,2,2,3,3,4,4,5,5,6,6],"right_children":[2,4,6,8,10,12,14,-1,-1,-1,-1,-1,-1,-1,-1],"split_conditions":[-1.6372526E-2,-1.6827524E-2,-6.77019E-2,3.404197E-2,2.0805856E-2,-4.2221923E-3,-7.536123E-2,5.7300948E-2,-3.7268955E-2,-4.326524E-2,5.5219814E-2,5.595406E-2,-3.2984637E-2,4.418962E-2,-5.743958E-2],"split_indices":[246,514,880,47,535,587,887,0,0,0,0,0,0,0,0],"split_type":[0,0,0,0,0,0,0,0,0,0,0,0,0,0,0],"sum_hessian":[4.4382047E2,2.3095026E2,2.128702E2,1.6592445E2,6.50258E1,6.204751E1,1.508227E2,1.5519504E2,1.0729417E1,4.131543E1,2.3710375E1,2.9938122E1,3.2109386E1,1.2977897E0,1.495249E2],"tree_param":{"num_deleted":"0","num_feature":"1024","num_nodes":"15","size_leaf_vector":"1"}},{"base_weights":[2.075328E-2,-2.9220727E-1,2.2846918E-1,-3.7828425E-1,6.6362536E-1,-1.6703063E-1,4.3498328E-1,-5.390803E-2,1.1292109E-2,8.92855E-2,-4.0184252E-2,-5.649718E-2,1.0783792E-2,5.8865193E-2,-2.839231E-2],"categories":[],"categories_nodes":[],"categories_segments":[],"categories_sizes":[],"default_left":[0,0,0,0,0,0,0,0,0,0,0,0,0,0,0],"id":70,"left_children":[1,3,5,7,9,11,13,-1,-1,-1,-1,-1,-1,-1,-1],"loss_changes":[3.1891743E1,1.6355795E1,2.4152512E1,1.1012562E1,3.2534876E0,9.906127E0,1.5814713E1,0E0,0E0,0E0,0E0,0E0,0E0,0E0,0E0],"parents":[2147483647,0,0,1,1,2,2,3,3,4,4,5,5,6,6],"right_children":[2,4,6,8,10,12,14,-1,-1,-1,-1,-1,-1,-1,-1],"split_conditions":[-3.405818E-2,5.53814E-2,8.256795E-5,1.9393291E-2,-1.238641E-2,-1.2080199E-2,-1.2360466E-2,-5.390803E-2,1.1292109E-2,8.92855E-2,-4.0184252E-2,-5.649718E-2,1.0783792E-2,5.8865193E-2,-2.839231E-2],"split_indices":[85,655,772,772,657,893,93,0,0,0,0,0,0,0,0],"split_type":[0,0,0,0,0,0,0,0,0,0,0,0,0,0,0],"sum_hessian":[4.8856323E2,1.9474255E2,2.9382068E2,1.7920828E2,1.5534265E1,1.0085746E2,1.9296321E2,1.4222194E2,3.698634E1,1.3507573E1,2.0266912E0,4.2534447E1,5.8323017E1,1.658654E2,2.7097815E1],"tree_param":{"num_deleted":"0","num_feature":"1024","num_nodes":"15","size_leaf_vector":"1"}},{"base_weights":[-4.038899E-2,4.9974924E-1,-5.7276726E-2,6.3597254E-2,-5.4101877E-2],"categories":[],"categories_nodes":[],"categories_segments":[],"categories_sizes":[],"default_left":[0,0,0,0,0],"id":71,"left_children":[1,3,-1,-1,-1],"loss_changes":[9.64584E1,1.6749619E1,0E0,0E0,0E0],"parents":[2147483647,0,0,1,1],"right_children":[2,4,-1,-1,-1],"split_conditions":[-3.2252032E-2,-4.0550034E-2,-5.7276726E-2,6.3597254E-2,-5.4101877E-2],"split_indices":[790,680,0,0,0],"split_type":[0,0,0,0,0],"sum_hessian":[3.5871225E2,1.7154465E2,1.8716759E2,1.571377E2,1.4406956E1],"tree_param":{"num_deleted":"0","num_feature":"1024","num_nodes":"5","size_leaf_vector":"1"}},{"base_weights":[1.160484E-2,3.1638575E-1,-3.5758492E-1,5.5409014E-2,5.633518E-1,6.4796317E-1,-4.3895903E-1,-1.8734112E-2,5.4389764E-2,6.546751E-2,5.2231504E-4,6.2093087E-3,7.4221864E-2,7.320538E-2,-5.1010523E-2],"categories":[],"categories_nodes":[],"categories_segments":[],"categories_sizes":[],"default_left":[0,0,0,0,0,0,0,0,0,0,0,0,0,0,0],"id":72,"left_children":[1,3,5,7,9,11,13,-1,-1,-1,-1,-1,-1,-1,-1],"loss_changes":[4.975756E1,1.5579884E1,1.6648436E1,1.2506037E1,3.377861E0,3.762393E-1,8.23415E0,0E0,0E0,0E0,0E0,0E0,0E0,0E0,0E0],"parents":[2147483647,0,0,1,1,2,2,3,3,4,4,5,5,6,6],"right_children":[2,4,6,8,10,12,14,-1,-1,-1,-1,-1,-1,-1,-1],"split_conditions":[1.8914405E-2,-1.080401E-2,-3.2552287E-3,2.7790448E-2,8.8541314E-2,-4.2336542E-2,-4.829704E-2,-1.8734112E-2,5.4389764E-2,6.546751E-2,5.2231504E-4,6.2093087E-3,7.4221864E-2,7.320538E-2,-5.1010523E-2],"split_indices":[218,600,614,56,848,482,546,0,0,0,0,0,0,0,0],"split_type":[0,0,0,0,0,0,0,0,0,0,0,0,0,0,0],"sum_hessian":[4.4019763E2,2.4121118E2,1.9898645E2,1.1787421E2,1.2333697E2,1.4376148E1,1.8461029E2,7.852774E1,3.9346466E1,1.1335824E2,9.978736E0,1.2017564E0,1.3174392E1,5.4726076E0,1.7913768E2],"tree_param":{"num_deleted":"0","num_feature":"1024","num_nodes":"15","size_leaf_vector":"1"}},{"base_weights":[-8.2677155E-4,3.801912E-1,-2.6001486E-1,-1.0914945E-1,5.661766E-1,-3.6963034E-1,5.218048E-1,4.0795486E-2,-6.081351E-2,-3.8232148E-2,6.4915866E-2,-4.628838E-2,6.930054E-2,6.808774E-2,-4.765583E-2],"categories":[],"categories_nodes":[],"categories_segments":[],"categories_sizes":[],"default_left":[0,0,0,0,0,0,0,0,0,0,0,0,0,0,0],"id":73,"left_children":[1,3,5,7,9,11,13,-1,-1,-1,-1,-1,-1,-1,-1],"loss_changes":[4.2370785E1,1.5870405E1,2.2075886E1,1.1185641E1,4.9550514E0,1.4698385E1,3.8143244E0,0E0,0E0,0E0,0E0,0E0,0E0,0E0,0E0],"parents":[2147483647,0,0,1,1,2,2,3,3,4,4,5,5,6,6],"right_children":[2,4,6,8,10,12,14,-1,-1,-1,-1,-1,-1,-1,-1],"split_conditions":[-5.155907E-2,1.24937575E-2,3.938717E-2,1.1780106E-2,-2.579694E-2,7.34836E-2,1.18341975E-1,4.0795486E-2,-6.081351E-2,-3.8232148E-2,6.4915866E-2,-4.628838E-2,6.930054E-2,6.808774E-2,-4.765583E-2],"split_indices":[391,672,295,650,848,776,684,0,0,0,0,0,0,0,0],"split_type":[0,0,0,0,0,0,0,0,0,0,0,0,0,0,0],"sum_hessian":[4.2704715E2,1.7270148E2,2.5434569E2,4.767591E1,1.2502556E2,2.2353241E2,3.081328E1,2.3138233E1,2.453768E1,4.949302E0,1.20076256E2,2.1101904E2,1.2513359E1,2.7851833E1,2.9614472E0],"tree_param":{"num_deleted":"0","num_feature":"1024","num_nodes":"15","size_leaf_vector":"1"}},{"base_weights":[2.9800354E-2,2.2888176E-1,-2.9053375E-1,-2.7982202E-1,3.7934232E-1,2.9009375E-1,-4.0315318E-1,6.578798E-2,-4.4782806E-2,6.254032E-2,9.111812E-3,5.7297714E-2,-5.4923337E-2,4.9529836E-2,-4.9166527E-2],"categories":[],"categories_nodes":[],"categories_segments":[],"categories_sizes":[],"default_left":[0,0,0,0,0,0,0,0,0,0,0,0,0,0,0],"id":74,"left_children":[1,3,5,7,9,11,13,-1,-1,-1,-1,-1,-1,-1,-1],"loss_changes":[2.9986984E1,2.229575E1,1.1904528E1,8.550773E0,1.3489449E1,6.1685047E0,7.6214523E0,0E0,0E0,0E0,0E0,0E0,0E0,0E0,0E0],"parents":[2147483647,0,0,1,1,2,2,3,3,4,4,5,5,6,6],"right_children":[2,4,6,8,10,12,14,-1,-1,-1,-1,-1,-1,-1,-1],"split_conditions":[-1.9922385E-3,-3.6959622E-2,-3.2526903E-2,-1.2332112E-2,-2.4971664E-2,-3.1425048E-2,-5.548221E-2,6.578798E-2,-4.4782806E-2,6.254032E-2,9.111812E-3,5.7297714E-2,-5.4923337E-2,4.9529836E-2,-4.9166527E-2],"split_indices":[168,260,911,855,405,972,153,0,0,0,0,0,0,0,0],"split_type":[0,0,0,0,0,0,0,0,0,0,0,0,0,0,0],"sum_hessian":[4.6817493E2,2.8890906E2,1.7926587E2,6.575001E1,2.2315906E2,2.8866117E1,1.5039975E2,8.370572E0,5.7379433E1,1.3084038E2,9.231867E1,2.2364784E1,6.5013323E0,8.767854E0,1.416319E2],"tree_param":{"num_deleted":"0","num_feature":"1024","num_nodes":"15","size_leaf_vector":"1"}},{"base_weights":[-6.551652E-2,4.4321078E-1,-5.6903265E-2,-5.472898E-2,5.748919E-1,6.258125E-2,-3.208226E-2],"categories":[],"categories_nodes":[],"categories_segments":[],"categories_sizes":[],"default_left":[0,0,0,0,0,0,0],"id":75,"left_children":[1,3,-1,-1,5,-1,-1],"loss_changes":[7.763903E1,1.9980501E1,0E0,0E0,1.4032745E0,0E0,0E0],"parents":[2147483647,0,0,1,1,4,4],"right_children":[2,4,-1,-1,6,-1,-1],"split_conditions":[-1.1722569E-2,2.4585044E-2,-5.6903265E-2,-5.472898E-2,1.4515278E-2,6.258125E-2,-3.208226E-2],"split_indices":[593,944,0,0,700,0,0],"split_type":[0,0,0,0,0,0,0],"sum_hessian":[3.2518268E2,1.555678E2,1.6961487E2,1.8504036E1,1.3706377E2,1.3581679E2,1.2469699E0],"tree_param":{"num_deleted":"0","num_feature":"1024","num_nodes":"7","size_leaf_vector":"1"}},{"base_weights":[1.5435602E-2,3.7637624E-1,-2.6281223E-1,-5.8361236E-2,5.3792256E-1,2.636375E-1,-4.1395843E-1,6.4050786E-2,-2.9687116E-2,6.4988434E-2,-1.1618661E-2,5.0766505E-2,-2.2519914E-2,-5.2118447E-2,3.56944E-2],"categories":[],"categories_nodes":[],"categories_segments":[],"categories_sizes":[],"default_left":[0,0,0,0,0,0,0,0,0,0,0,0,0,0,0],"id":76,"left_children":[1,3,5,7,9,11,13,-1,-1,-1,-1,-1,-1,-1,-1],"loss_changes":[4.2215767E1,1.2881073E1,1.8998955E1,7.4357543E0,6.076496E0,5.458264E0,1.0289827E1,0E0,0E0,0E0,0E0,0E0,0E0,0E0,0E0],"parents":[2147483647,0,0,1,1,2,2,3,3,4,4,5,5,6,6],"right_children":[2,4,6,8,10,12,14,-1,-1,-1,-1,-1,-1,-1,-1],"split_conditions":[1.431295E-2,-2.6176462E-2,2.5588719E-3,4.7915527E-3,3.0686868E-2,-6.2639615E-3,-2.4611112E-2,6.4050786E-2,-2.9687116E-2,6.4988434E-2,-1.1618661E-2,5.0766505E-2,-2.2519914E-2,-5.2118447E-2,3.56944E-2],"split_indices":[813,888,218,614,715,826,880,0,0,0,0,0,0,0,0],"split_type":[0,0,0,0,0,0,0,0,0,0,0,0,0,0,0],"sum_hessian":[4.183612E2,1.8196506E2,2.3639616E2,4.947136E1,1.324937E2,5.256509E1,1.8383107E2,1.1939913E1,3.7531445E1,1.196649E2,1.2828804E1,3.6378685E1,1.6186405E1,1.6773785E2,1.6093216E1],"tree_param":{"num_deleted":"0","num_feature":"1024","num_nodes":"15","size_leaf_vector":"1"}},{"base_weights":[1.4270722E-2,2.6979336E-1,-3.690404E-1,-2.7222326E-1,3.9271596E-1,-4.8619232E-1,1.2920173E-1,3.1213168E-2,-5.782981E-2,-2.8462602E-2,5.0934583E-2,-5.6037877E-2,4.2678654E-2,5.6955904E-2,-4.462699E-2],"categories":[],"categories_nodes":[],"categories_segments":[],"categories_sizes":[],"default_left":[0,0,0,0,0,0,0,0,0,0,0,0,0,0,0],"id":77,"left_children":[1,3,5,7,9,11,13,-1,-1,-1,-1,-1,-1,-1,-1],"loss_changes":[4.0597237E1,1.66748E1,9.740875E0,7.2066813E0,1.129439E1,4.6949787E0,7.3513393E0,0E0,0E0,0E0,0E0,0E0,0E0,0E0,0E0],"parents":[2147483647,0,0,1,1,2,2,3,3,4,4,5,5,6,6],"right_children":[2,4,6,8,10,12,14,-1,-1,-1,-1,-1,-1,-1,-1],"split_conditions":[-6.0416833E-2,-4.896475E-3,2.4911888E-2,4.2066555E-3,-2.2125797E-2,8.692077E-2,-7.279265E-3,3.1213168E-2,-5.782981E-2,-2.8462602E-2,5.0934583E-2,-5.6037877E-2,4.2678654E-2,5.6955904E-2,-4.462699E-2],"split_indices":[880,463,637,323,618,28,891,0,0,0,0,0,0,0,0],"split_type":[0,0,0,0,0,0,0,0,0,0,0,0,0,0,0],"sum_hessian":[4.12475E2,2.4766972E2,1.648053E2,4.5560413E1,2.021093E2,1.3345107E2,3.1354233E1,1.4662481E1,3.089793E1,2.2478893E1,1.7963042E2,1.2839207E2,5.058983E0,1.8054789E1,1.3299444E1],"tree_param":{"num_deleted":"0","num_feature":"1024","num_nodes":"15","size_leaf_vector":"1"}},{"base_weights":[3.491784E-2,-1.844193E-1,2.6842538E-1,2.715008E-2,-4.9404854E-1,-3.4291372E-1,4.0284985E-1,2.4661211E-2,-4.8732176E-2,9.756449E-2,-5.592034E-2,-5.961297E-2,3.2426238E-2,5.5123024E-2,-1.846733E-2],"categories":[],"categories_nodes":[],"categories_segments":[],"categories_sizes":[],"default_left":[0,0,0,0,0,0,0,0,0,0,0,0,0,0,0],"id":78,"left_children":[1,3,5,7,9,11,13,-1,-1,-1,-1,-1,-1,-1,-1],"loss_changes":[2.3293486E1,1.5382303E1,1.8235903E1,1.3883298E1,4.3273563E0,5.742038E0,1.1804909E1,0E0,0E0,0E0,0E0,0E0,0E0,0E0,0E0],"parents":[2147483647,0,0,1,1,2,2,3,3,4,4,5,5,6,6],"right_children":[2,4,6,8,10,12,14,-1,-1,-1,-1,-1,-1,-1,-1],"split_conditions":[-1.2594601E-2,-3.521426E-2,-1.8745419E-2,-2.8262982E-2,-5.581315E-2,-9.375943E-3,-2.2679444E-4,2.4661211E-2,-4.8732176E-2,9.756449E-2,-5.592034E-2,-5.961297E-2,3.2426238E-2,5.5123024E-2,-1.846733E-2],"split_indices":[108,840,653,663,7,215,485,0,0,0,0,0,0,0,0],"split_type":[0,0,0,0,0,0,0,0,0,0,0,0,0,0,0],"sum_hessian":[4.5283444E2,2.3361067E2,2.1922379E2,1.3932341E2,9.4287254E1,3.9235695E1,1.7998808E2,9.8389275E1,4.093414E1,1.2727225E0,9.301453E1,2.9562716E1,9.67298E0,1.5064807E2,2.9340021E1],"tree_param":{"num_deleted":"0","num_feature":"1024","num_nodes":"15","size_leaf_vector":"1"}},{"base_weights":[-5.5224188E-2,4.8490733E-1,-5.662167E-2,6.095821E-2,-5.2722957E-2],"categories":[],"categories_nodes":[],"categories_segments":[],"categories_sizes":[],"default_left":[0,0,0,0,0],"id":79,"left_children":[1,3,-1,-1,-1],"loss_changes":[7.9409225E1,1.2329494E1,0E0,0E0,0E0],"parents":[2147483647,0,0,1,1],"right_children":[2,4,-1,-1,-1],"split_conditions":[-3.2252032E-2,-1.9046033E-2,-5.662167E-2,6.095821E-2,-5.2722957E-2],"split_indices":[790,125,0,0,0],"split_type":[0,0,0,0,0],"sum_hessian":[3.0808533E2,1.4400609E2,1.6407924E2,1.3287561E2,1.1130484E1],"tree_param":{"num_deleted":"0","num_feature":"1024","num_nodes":"5","size_leaf_vector":"1"}},{"base_weights":[3.860485E-3,5.151328E-1,-1.7847286E-1,5.5573934E-1,-4.0875465E-2,-3.0885592E-1,4.3030116E-1,6.2354814E-2,-3.3266623E-2,-4.076403E-2,4.2718504E-2,-3.8716055E-2,6.0531307E-2],"categories":[],"categories_nodes":[],"categories_segments":[],"categories_sizes":[],"default_left":[0,0,0,0,0,0,0,0,0,0,0,0,0],"id":80,"left_children":[1,3,5,7,-1,9,11,-1,-1,-1,-1,-1,-1],"loss_changes":[3.6907352E1,4.004284E0,2.3298037E1,2.5383396E0,0E0,1.2479229E1,5.7798595E0,0E0,0E0,0E0,0E0,0E0,0E0],"parents":[2147483647,0,0,1,1,2,2,3,3,5,5,6,6],"right_children":[2,4,6,8,-1,10,12,-1,-1,-1,-1,-1,-1],"split_conditions":[1.78564E-2,4.5937255E-2,1.1628849E-3,3.0373404E-2,-4.0875465E-2,-1.405959E-2,-5.4158416E-2,6.2354814E-2,-3.3266623E-2,-4.076403E-2,4.2718504E-2,-3.8716055E-2,6.0531307E-2],"split_indices":[355,163,612,819,0,880,241,0,0,0,0,0,0],"split_type":[0,0,0,0,0,0,0,0,0,0,0,0,0],"sum_hessian":[3.9392203E2,1.0307345E2,2.908486E2,9.897489E1,4.098557E0,2.3995033E2,5.0898262E1,9.628072E1,2.6941714E0,2.1816023E2,2.179009E1,7.1941605E0,4.37041E1],"tree_param":{"num_deleted":"0","num_feature":"1024","num_nodes":"13","size_leaf_vector":"1"}},{"base_weights":[-1.1610675E-2,2.2631034E-1,-3.7809715E-1,-1.6861213E-2,4.878274E-1,4.3734705E-1,-4.3648738E-1,2.153453E-2,-5.3731192E-2,-2.7780488E-2,6.073631E-2,7.6144345E-2,-4.2619467E-2,-5.541387E-2,6.3430704E-3],"categories":[],"categories_nodes":[],"categories_segments":[],"categories_sizes":[],"default_left":[0,0,0,0,0,0,0,0,0,0,0,0,0,0,0],"id":81,"left_children":[1,3,5,7,9,11,13,-1,-1,-1,-1,-1,-1,-1,-1],"loss_changes":[3.3291912E1,1.4732914E1,7.3465786E0,1.2911659E1,6.819847E0,2.7022142E0,5.722164E0,0E0,0E0,0E0,0E0,0E0,0E0,0E0,0E0],"parents":[2147483647,0,0,1,1,2,2,3,3,4,4,5,5,6,6],"right_children":[2,4,6,8,10,12,14,-1,-1,-1,-1,-1,-1,-1,-1],"split_conditions":[-5.9826784E-2,1.0518503E-2,-1.0583887E-1,-8.0462545E-3,-1.6036922E-2,-5.1882632E-2,3.2835092E-2,2.153453E-2,-5.3731192E-2,-2.7780488E-2,6.073631E-2,7.6144345E-2,-4.2619467E-2,-5.541387E-2,6.3430704E-3],"split_indices":[880,576,32,304,309,929,637,0,0,0,0,0,0,0,0],"split_type":[0,0,0,0,0,0,0,0,0,0,0,0,0,0,0],"sum_hessian":[3.7982928E2,2.3054391E2,1.4928537E2,1.1994688E2,1.10597046E2,9.541679E0,1.3974368E2,8.315801E1,3.678886E1,1.0472288E1,1.00124756E2,7.294221E0,2.2474582E0,1.19963165E2,1.9780521E1],"tree_param":{"num_deleted":"0","num_feature":"1024","num_nodes":"15","size_leaf_vector":"1"}},{"base_weights":[2.1562735E-2,2.3621544E-1,-2.3793542E-1,3.5786864E-1,-3.805806E-1,3.9101833E-1,-3.684037E-1,5.0362032E-2,-2.0855855E-2,-5.58822E-2,4.8713833E-2,6.516134E-2,-4.6474665E-2,4.8806682E-2,-4.695373E-2],"categories":[],"categories_nodes":[],"categories_segments":[],"categories_sizes":[],"default_left":[0,0,0,0,0,0,0,0,0,0,0,0,0,0,0],"id":82,"left_children":[1,3,5,7,9,11,13,-1,-1,-1,-1,-1,-1,-1,-1],"loss_changes":[2.433327E1,1.8072012E1,1.637576E1,1.2591576E1,4.9650865E0,6.472067E0,9.762527E0,0E0,0E0,0E0,0E0,0E0,0E0,0E0,0E0],"parents":[2147483647,0,0,1,1,2,2,3,3,4,4,5,5,6,6],"right_children":[2,4,6,8,10,12,14,-1,-1,-1,-1,-1,-1,-1,-1],"split_conditions":[-9.993522E-3,9.87407E-3,-7.887004E-2,-1.1249989E-2,8.547293E-3,-2.4384076E-2,-4.953264E-2,5.0362032E-2,-2.0855855E-2,-5.58822E-2,4.8713833E-2,6.516134E-2,-4.6474665E-2,4.8806682E-2,-4.695373E-2],"split_indices":[193,659,942,928,746,873,856,0,0,0,0,0,0,0,0],"split_type":[0,0,0,0,0,0,0,0,0,0,0,0,0,0,0],"sum_hessian":[4.3483847E2,2.3803198E2,1.968065E2,1.9916888E2,3.8863094E1,3.3468155E1,1.6333835E2,1.6550269E2,3.3666203E1,3.3546165E1,5.316927E0,2.6679459E1,6.7886953E0,1.2442143E1,1.5089621E2],"tree_param":{"num_deleted":"0","num_feature":"1024","num_nodes":"15","size_leaf_vector":"1"}},{"base_weights":[-6.404748E-2,4.6388546E-1,-5.6362163E-2,6.017397E-2,-5.274203E-2],"categories":[],"categories_nodes":[],"categories_segments":[],"categories_sizes":[],"default_left":[0,0,0,0,0],"id":83,"left_children":[1,3,-1,-1,-1],"loss_changes":[7.1153206E1,1.3127258E1,0E0,0E0,0E0],"parents":[2147483647,0,0,1,1],"right_children":[2,4,-1,-1,-1],"split_conditions":[-3.2252032E-2,-4.0550034E-2,-5.6362163E-2,6.017397E-2,-5.274203E-2],"split_indices":[790,680,0,0,0],"split_type":[0,0,0,0,0],"sum_hessian":[2.8917703E2,1.3509268E2,1.5408435E2,1.228395E2,1.2253179E1],"tree_param":{"num_deleted":"0","num_feature":"1024","num_nodes":"5","size_leaf_vector":"1"}},{"base_weights":[8.874776E-3,5.045138E-1,-1.7527117E-1,-5.157693E-2,5.5904925E-1,3.8786566E-1,-3.0436653E-1,-4.699953E-2,5.274645E-2,-3.1331766E-3,6.3557655E-2,6.388006E-2,-1.3092675E-2,1.2547106E-2,-4.6634596E-2],"categories":[],"categories_nodes":[],"categories_segments":[],"categories_sizes":[],"default_left":[0,0,0,0,0,0,0,0,0,0,0,0,0,0,0],"id":84,"left_children":[1,3,5,7,9,11,13,-1,-1,-1,-1,-1,-1,-1,-1],"loss_changes":[3.494133E1,3.1737404E0,2.0412905E1,2.3664572E0,1.9714165E0,5.6811123E0,1.2685394E1,0E0,0E0,0E0,0E0,0E0,0E0,0E0,0E0],"parents":[2147483647,0,0,1,1,2,2,3,3,4,4,5,5,6,6],"right_children":[2,4,6,8,10,12,14,-1,-1,-1,-1,-1,-1,-1,-1],"split_conditions":[1.78564E-2,-3.2120075E-2,-3.1038918E-2,-4.710192E-2,-4.842432E-2,7.979126E-3,-5.3248364E-3,-4.699953E-2,